2276 128
</s> 0.003127 0.003453 -0.002992 -0.002561 0.001068 0.002360 0.000735 0.000165 -0.002815 0.001733 -0.003403 0.000976 -0.000587 -0.000748 -0.002590 -0.001470 0.002015 0.002364 0.002320 0.001248 0.001207 -0.002971 -0.003200 0.003883 0.002970 0.002414 -0.000472 0.003137 -0.000387 0.000574 -0.000117 -0.002331 0.001025 -0.001045 -0.002989 0.003714 0.003421 -0.000856 -0.000177 0.000398 -0.002842 -0.003131 0.003558 0.000049 -0.002017 -0.002377 -0.002403 0.001326 0.000157 0.001040 -0.003292 -0.002975 -0.000102 0.000893 0.001992 -0.002477 0.003187 0.000724 0.000875 -0.000475 0.002333 -0.001787 -0.001639 0.001686 -0.000588 0.000805 0.001410 -0.003194 -0.001549 0.002276 0.003306 0.003072 -0.002380 -0.001647 -0.000710 0.001564 -0.002960 0.002342 0.002178 -0.001249 -0.001212 -0.001749 0.003304 0.003056 -0.000922 0.003293 0.003766 0.001418 0.003893 -0.002431 -0.001197 -0.001646 -0.002271 0.002199 0.001234 0.000332 -0.001714 0.001191 0.002390 0.000151 0.001781 -0.003869 0.003371 0.000375 -0.001431 -0.001628 -0.000584 -0.002293 -0.003414 -0.002216 0.003341 -0.001383 -0.002093 0.001810 -0.001331 0.003716 -0.001254 -0.003585 0.002122 -0.000058 -0.002726 0.000762 0.001127 -0.000376 0.001425 -0.003092 0.000688 0.001419 
318 0.010276 -0.453148 0.146450 0.417709 0.009112 -0.122608 0.250040 -0.593271 -0.121704 0.178101 0.201511 -0.535341 0.236354 -0.173521 -0.389301 0.026106 -0.305809 0.332522 0.197717 -0.233478 -0.018507 0.323906 -0.239734 0.408971 -0.162187 0.210851 -0.196323 0.312688 0.065917 -0.052491 -0.005844 0.225466 -0.183248 -0.359913 0.326048 0.015174 0.343394 0.174103 0.126383 0.369283 0.451475 0.210365 -0.323561 0.024066 -0.557690 -0.103610 0.309719 -0.027931 -0.139466 0.036848 0.395699 -0.243458 -0.238518 0.172543 -0.425126 -0.483171 0.075062 -0.140364 -0.299594 0.843012 0.184673 -0.166079 0.043604 0.074743 0.111954 0.542941 -0.316513 -0.188416 -0.030589 -0.261142 -0.095805 -0.228762 -0.004367 -0.146176 0.297765 0.107702 0.397872 -0.137545 0.608322 0.056890 -0.200048 0.351673 -0.575507 -0.324588 0.092282 -0.295811 0.047382 0.083803 0.696417 0.457895 -0.076790 -0.077529 0.231091 -0.194161 0.389574 0.346969 0.008518 0.299628 0.372269 0.026287 -0.241266 0.370843 0.053614 0.059614 0.308213 0.077305 -0.242513 -0.733008 -0.054351 -0.156200 -0.664379 -0.105234 -0.155061 0.360028 0.351120 -0.302965 0.727521 -0.230027 -0.084916 0.122793 -0.497442 -0.301618 -0.492276 0.206146 -0.305396 -0.294046 -0.169996 -0.644971 
296 0.234045 -0.128723 0.126816 0.301028 -0.051686 -0.088895 0.020336 -0.847722 -0.057365 0.254631 0.431833 -0.381074 0.129374 -0.108343 -0.319968 -0.128499 -0.935061 -0.153138 0.633668 -0.273241 -0.067888 0.338618 -0.649697 -0.258811 -0.442932 0.180559 0.170212 -0.061423 -0.087413 0.616199 -0.070746 0.087303 -0.075755 -0.583854 0.058710 0.350898 -0.003416 0.181484 0.603502 -0.054998 -0.183057 -0.314392 -0.115292 -0.062131 0.058569 0.041827 0.373703 0.457268 0.383952 -0.068166 0.318080 -0.099725 -0.265377 0.320652 -0.088505 -0.283220 -0.109964 -0.340870 0.220580 0.464357 0.348929 -0.417997 0.190035 -0.269891 0.142357 0.378646 -0.033751 -0.421555 -0.054646 -0.091867 0.441034 -0.038531 0.244277 -0.264252 0.176155 0.135031 0.402036 0.038054 0.333969 0.326291 0.126294 0.074887 -0.500268 0.067394 0.104980 -0.212123 -0.036218 0.085301 0.780475 0.120541 -0.161062 0.086073 0.027959 -0.246090 0.670814 0.226817 0.528959 0.062293 -0.321626 -0.271441 -0.235680 0.457562 -0.512309 -0.152329 0.161833 0.034937 -0.006861 -0.186382 0.471088 -0.170064 -0.910091 -0.226297 -0.331651 0.509064 0.214436 0.115142 0.347083 -0.593676 -0.100855 -0.293639 -0.216583 -0.086019 -0.142212 -0.084899 -0.020590 -0.342217 -0.267307 -0.524072 
356 0.071245 -0.116984 -0.173047 -0.050451 -0.309618 -0.052584 0.229352 -0.755010 -0.094658 0.152318 0.105594 -0.137271 -0.029060 -0.419306 -0.328305 -0.211579 -0.648274 0.347969 0.107154 -0.120663 0.228273 0.105351 -0.583715 -0.053175 0.256125 0.185442 -0.013329 0.068447 -0.063750 0.676236 0.277104 -0.050554 0.139705 -0.692785 0.078884 0.389368 0.064077 0.485382 0.378737 -0.182008 0.381849 -0.136353 0.037694 0.145560 -0.142747 -0.182591 0.158994 -0.037011 0.134078 0.272052 0.255667 -0.455133 -0.365489 0.095683 -0.297033 -0.159621 -0.063649 -0.172501 -0.197150 0.655422 0.195442 -0.417905 0.664927 -0.054285 0.186883 0.323084 -0.251036 -0.016495 0.228348 0.086777 -0.441153 -0.261010 -0.012970 0.057968 0.247109 -0.236152 0.190655 -0.282993 0.448798 0.249922 -0.481156 -0.273138 -0.641591 0.048522 0.295395 0.194643 0.139253 0.081793 0.713112 0.233790 -0.147013 -0.074677 -0.069937 -0.562648 0.518197 0.170003 0.052762 0.538075 0.492310 -0.443225 -0.141709 0.596928 0.169261 0.297069 0.173480 0.335974 -0.098161 0.340986 -0.161179 -0.232441 -0.405466 -0.121048 -0.329539 0.746588 0.015229 0.335987 0.130976 0.329047 -0.270777 -0.243567 -0.250719 0.027982 -0.672426 0.396559 -0.136427 -0.480468 -0.355998 -0.121833 
593 -0.024197 -0.217233 0.055641 0.117024 -0.000313 0.110555 -0.177490 -0.477855 -0.366239 -0.036801 0.552085 -0.629008 0.010952 0.153319 -0.656238 0.225418 -0.637316 0.305281 0.593941 -0.447239 -0.283619 0.467363 -0.518362 0.014322 0.360650 -0.056755 0.115514 -0.518305 -0.338768 -0.071667 0.278185 0.538616 0.422592 -0.043575 0.517771 -0.528806 -0.447792 0.105091 0.457937 0.086035 0.150340 0.535963 -0.187811 -0.258055 -0.198133 -0.206478 0.156546 -0.218614 -0.229452 0.121671 -0.088599 0.003317 0.124475 -0.515846 -0.088652 -0.261126 0.121754 -0.004242 0.251198 0.211270 0.245382 0.002072 0.273383 -0.073513 0.027817 0.540124 -0.667293 -0.246647 0.128045 0.220359 -0.022223 0.068471 0.374977 -0.323329 -0.290383 0.051462 0.151184 0.263004 0.402363 -0.085916 -0.508739 -0.274289 -0.355657 -0.116513 -0.318494 -0.477011 -0.135225 0.315765 0.739367 0.043001 0.228086 -0.060182 0.069110 -0.263587 0.128803 -0.102685 -0.125526 0.416666 0.051932 0.610982 0.175350 0.826065 0.060371 0.293305 0.522846 0.073038 -0.006666 -0.018344 -0.135967 -0.042962 0.137748 -0.206750 -0.304393 0.443124 0.432984 0.312524 -0.066268 -0.418853 0.076553 0.155940 -0.715187 0.120565 -0.298385 0.082747 -0.165055 0.058924 0.014313 -0.530847 
260 -0.319536 -0.204893 0.054671 0.225649 -0.112086 0.062207 -0.177914 -0.635412 0.012806 0.086012 0.528008 -0.554154 0.742634 -0.167398 -0.283427 0.022035 -0.397491 0.051980 0.460151 -0.314931 0.054994 0.032146 -0.490990 -0.262332 -0.570616 0.040965 0.237722 -0.119603 -0.317709 0.521448 0.322578 0.045856 0.115433 -0.071354 0.109848 0.086565 -0.152764 0.092298 0.231157 0.272552 0.274902 -0.229433 0.080375 0.082010 -0.192238 -0.010830 0.497087 0.180036 0.073756 0.092165 0.229187 -0.194797 -0.292135 0.330313 -0.401143 -0.121567 0.181446 0.168862 -0.144459 0.540237 0.486685 0.247147 0.117031 0.183752 -0.374103 0.294666 -0.584294 -0.299886 0.249859 -0.297363 -0.324205 0.082349 -0.083754 0.056293 -0.262879 -0.065163 0.351809 -0.071470 0.053895 0.308725 0.143763 -0.020654 -0.937945 0.012165 -0.117486 0.071930 0.024825 -0.340476 0.401487 0.802314 -0.433653 -0.040463 -0.123417 -0.164178 -0.030042 -0.080129 -0.131360 0.369502 0.084049 -0.433732 -0.450841 0.440152 0.013950 -0.106406 0.414088 0.213763 0.152636 0.259283 0.109075 -0.700932 -0.618502 -0.183499 -0.377870 0.067012 0.331839 -0.262517 0.422802 -0.475630 -0.184747 -0.059083 -0.278250 -0.350887 0.254039 0.494603 -0.105077 -0.122150 -0.631711 -0.144265 
527 0.297520 0.172960 -0.080470 0.208899 -0.345705 -0.031387 -0.154897 -0.775369 -0.305903 0.555804 0.325224 -0.668723 -0.330514 -0.117028 -0.058363 0.068430 -0.387150 0.184572 0.316886 -0.089800 -0.492310 0.089649 -0.459238 -0.200392 0.116303 0.146639 0.402685 -0.182391 -0.420688 0.084487 -0.209547 -0.097610 0.494714 -0.451390 0.779133 -0.087071 0.338862 -0.099995 0.301182 -0.322680 0.061762 0.125688 -0.367132 -0.389560 -0.071822 -0.021456 0.124102 -0.134627 -0.001097 0.219282 -0.116812 0.016460 -0.187161 0.163616 -0.345793 -0.020785 0.058320 -0.704499 -0.298105 0.535068 0.155639 -0.102187 0.057936 0.521240 -0.314386 0.247678 0.176617 -0.016465 0.357038 0.048031 -0.398681 -0.055743 0.572719 0.073693 -0.399439 -0.374987 0.139746 -0.115403 0.090997 -0.310823 0.295650 -0.392887 -0.449317 0.148688 0.035838 -0.314797 0.234064 -0.319242 0.736293 0.237109 0.067194 -0.296545 0.266669 0.020282 -0.072093 -0.174173 -0.552929 0.237845 0.105483 -0.130878 -0.026441 0.953089 0.072169 -0.367024 0.507242 -0.155397 0.215188 -0.144910 -0.463837 0.056385 -0.248816 -0.263004 -0.270501 0.471643 0.543501 0.260830 -0.260775 -0.153082 -0.380513 -0.005358 -0.453228 -0.370954 -0.526927 -0.036927 -0.190442 -0.579416 -0.009806 0.063687 
50 0.457825 -0.147576 0.251772 0.114892 -0.075974 -0.170261 -0.087820 -0.865800 -0.383172 -0.128304 0.519176 -0.485859 0.747421 0.184539 -0.340407 -0.232644 -0.458421 0.045861 0.341698 -0.177959 -0.511414 -0.225688 -0.244401 0.393602 -0.595692 0.009934 0.479844 -0.409287 0.371323 -0.010037 0.107272 0.359490 -0.014505 -0.652069 0.284005 -0.388971 0.239691 0.251752 0.219180 -0.105957 0.264225 -0.099135 -0.249761 -0.257432 0.206675 0.368404 0.215573 0.396672 0.065640 0.458012 -0.113546 -0.259174 -0.342455 0.312485 -0.409016 -0.343314 -0.001204 -0.513927 -0.072880 0.738425 0.334566 -0.157382 -0.261514 0.431767 -0.134409 0.099920 -0.076803 0.048587 0.180569 0.471684 -0.288643 -0.123807 -0.039499 0.118193 0.289960 -0.271247 0.113807 0.093056 0.271669 0.295245 0.593460 -0.307173 -0.539973 0.103988 0.567769 -0.112007 0.189230 -0.080085 0.812558 0.431027 -0.306108 -0.053890 -0.529563 -0.008120 0.295725 0.125441 -0.015522 0.022478 0.001173 0.087938 0.068081 0.644867 0.090312 0.566534 0.342848 -0.127797 -0.131567 -0.081368 0.033947 -0.089443 -0.213920 0.035208 -0.012250 -0.079809 -0.010417 -0.304295 0.238179 -0.180138 -0.277744 -0.533796 -0.083876 0.317435 0.110063 0.521038 -0.179409 -0.690227 -0.511477 -0.252417 
2571 -0.148299 -0.038646 -0.348948 0.022418 -0.292673 -0.110640 0.133539 -0.652810 -0.492966 0.172758 -0.203283 -0.440852 0.256623 0.539105 0.009986 0.243503 -0.399140 -0.086145 0.780839 0.071562 -0.077858 0.563145 0.094230 0.344727 0.382372 0.174915 0.141825 -0.034698 -0.325446 0.300918 -0.507982 -0.225316 -0.084347 -0.221675 -0.640415 0.099073 -0.373668 0.016702 0.088682 -0.125769 -0.393905 0.183893 0.203141 0.320932 -0.089906 -0.079998 0.660227 -0.536542 0.516310 -0.085247 0.100373 -0.114838 -0.295120 -0.360179 -0.254436 -0.332136 0.440424 -0.166607 -0.417199 -0.092429 0.021484 0.185710 -0.059932 -0.369168 0.471254 -0.064479 -0.400809 0.446086 0.045649 0.034903 -0.065330 0.389997 0.260274 -0.345440 0.558586 -0.205618 0.218378 -0.129192 0.452338 0.027167 0.504696 0.535386 -0.860343 0.095284 -0.452051 -0.335304 -0.212416 0.154947 0.404612 0.161397 0.384532 -0.036478 -0.336155 -0.518934 0.049330 0.909002 -0.127250 -0.367034 -0.118476 -0.316413 0.052864 0.801264 -0.336827 0.124168 -0.461886 0.006189 0.719612 -0.389958 -0.081787 0.123144 0.466476 0.266635 0.020035 -0.027293 -0.165667 0.014079 0.027894 0.065053 -0.139260 0.250802 -0.014484 0.443057 0.051731 0.287144 0.315359 0.025145 0.010126 -0.142589 
110 0.475881 -0.411764 0.240307 0.334799 0.027616 -0.129254 0.542770 -1.072205 -0.174460 -0.211567 0.655959 -0.277416 0.050938 0.283522 -0.245251 -0.578004 0.073357 0.395292 0.638653 -0.103806 -0.096326 0.346745 -0.574125 0.114577 -0.482762 -0.043901 0.244683 -0.560032 -0.283819 0.259223 0.173973 0.319907 0.082729 -0.491089 0.210705 -0.284295 0.199652 0.004385 0.599374 0.197144 0.118073 0.065693 0.126533 -0.219345 0.084372 0.072325 0.605064 0.349867 -0.067234 0.177625 0.269042 0.174872 -0.264454 0.289962 -0.532312 -0.526385 -0.295035 -0.198783 -0.831607 0.295473 0.493061 0.226843 0.401609 -0.241465 -0.274243 0.180226 -0.025053 0.031323 0.233293 -0.140545 -0.343331 -0.056240 0.002565 0.050226 0.272608 0.063110 0.117426 -0.136436 -0.127781 0.635120 0.204421 0.017877 -0.659616 0.247234 -0.280144 -0.191161 0.128444 0.337822 1.022763 0.589119 -0.089911 -0.081087 0.083919 -0.342617 0.434551 0.029827 0.276953 0.348551 0.254953 -0.141076 -0.103273 0.253622 0.295045 -0.085959 0.159725 -0.077153 -0.065433 0.126758 -0.040771 -0.215542 -0.417931 0.157934 0.017302 0.152823 0.233458 -0.283781 0.420911 -0.055669 0.090160 0.003575 -0.343296 -0.212208 0.131836 0.110300 -0.116705 -0.423159 0.167870 0.606501 
1196 -0.036884 -0.026798 0.071823 -0.283229 0.019536 0.025206 -0.262115 -0.927709 -0.233113 -0.230777 -0.076173 -0.453260 0.588938 0.602675 -0.204967 0.297837 -0.852540 0.023757 1.027655 0.421820 -0.073027 0.323086 -0.292195 -0.159135 -0.280135 -0.244956 -0.030850 -0.830026 -0.229094 0.033763 -0.358175 -0.208670 0.269215 -0.217610 0.005581 -0.181189 -0.340115 -0.078328 0.088616 0.531823 0.251167 0.089937 0.060027 -0.326020 0.149154 -0.488939 -0.021528 -0.617892 -0.197361 -0.042899 0.391661 0.177615 -0.205883 0.244243 0.429880 -0.020325 -0.582759 0.005200 0.172733 -0.012446 0.252909 -0.409489 -0.132199 0.479047 0.280210 0.360889 0.083551 0.558757 -0.022638 0.191802 -0.258768 0.253255 0.166793 0.151610 -0.087624 -0.066244 -0.166902 -0.028071 0.650549 -0.448747 0.137731 0.120971 -0.329874 -0.187232 -0.315947 -0.164781 -0.066541 -0.287148 0.738898 0.249971 0.211642 -0.129687 0.559033 -0.844304 0.063717 0.409808 0.041193 0.718475 -0.229693 -0.305018 0.079329 0.746830 -0.134604 0.245257 0.477984 -0.011693 -0.238736 0.140185 0.128241 -0.199984 -0.234410 -0.234553 -0.015729 -0.191272 -0.075480 0.439168 0.316034 -0.615517 0.078270 0.102331 -0.063143 0.353976 -0.118279 -0.293750 0.126730 -0.064572 -0.113371 -0.009359 
2858 -0.245136 -0.089429 -0.107892 -0.246363 -0.266096 -0.217833 0.203882 -0.192871 -0.110808 0.290237 -0.021472 -0.250079 0.382401 0.474868 -0.233550 0.495286 -0.793768 0.263564 0.609894 -0.134368 -0.223084 0.075842 0.227026 0.314526 0.079233 0.077099 -0.055677 -0.185208 0.090684 0.216718 -1.115653 -0.128190 0.551742 -0.218352 -0.252067 -0.100384 -0.276672 0.031777 -0.213675 -0.790824 -0.245948 -0.104964 -0.238705 0.006521 -0.063862 -0.194895 0.164817 -0.227549 0.314335 0.399709 -0.366568 0.221552 -0.048165 0.108195 -0.093243 0.002794 -0.473115 -0.104882 -0.772604 0.116618 0.176017 -0.484689 -0.499762 -0.347664 0.176708 -0.662896 -0.640039 0.046674 -0.190836 0.385315 -0.223710 0.310061 0.113979 -0.501249 -0.341210 -0.028759 0.084594 0.355457 -0.204338 0.223336 0.099626 0.368670 -0.662662 -0.312778 -0.100463 -0.185717 0.220495 0.227393 0.071768 0.314384 -0.544532 -0.148261 -0.069906 0.163077 0.240309 0.718021 -0.061580 -0.250221 -0.372860 -0.011500 0.039972 0.351382 -0.549799 0.225007 0.120923 0.296521 -0.118486 0.195510 -0.032876 0.467458 0.285736 0.200409 -0.453253 -0.116534 -0.260429 -0.128746 -0.225135 -0.116139 -0.327805 0.289994 0.057656 -0.169474 0.222237 0.022012 0.096359 0.053377 0.178320 -0.444698 
1210 -0.033076 -0.353573 0.231157 -0.852090 -0.338150 -0.204525 -0.523272 -0.802500 -0.359615 -0.106090 -0.072699 -0.343295 0.064212 0.549312 0.230279 0.341797 -0.175633 -0.246184 0.511062 0.210064 -0.172387 0.082539 -0.164725 -0.219892 0.362185 0.045415 -0.018110 -0.712979 -0.263453 0.532710 -0.134134 -0.019852 0.265839 -0.697429 0.108607 -0.582769 0.173969 -0.384711 0.214383 0.885338 0.322350 -0.324372 -0.141832 -0.023673 0.263940 -0.202287 0.145743 0.132790 -0.187184 -0.128082 -0.283829 0.110326 0.247068 0.272926 0.079057 0.145314 0.133447 0.162793 0.168818 -0.155171 -0.088149 -0.449997 0.042308 0.564772 0.537893 -0.052379 -0.333881 0.066609 0.064676 0.091969 0.425309 0.151612 -0.125181 0.150668 -0.174887 -0.186326 -0.271929 0.008289 0.531124 -0.361808 -0.121577 -0.029318 -1.173382 -0.107654 -0.021635 -0.628400 -0.198469 -0.332302 0.570332 0.226351 -0.155337 -0.166619 0.353507 -0.532583 0.348169 0.340477 0.555242 0.158636 -0.223361 -0.270301 0.189085 0.603325 0.076098 -0.284902 0.012744 0.156804 0.339335 -0.353602 0.396500 -0.556344 0.221599 -0.580013 0.025286 -0.180605 -0.364602 0.386707 0.275549 -0.800441 -0.319678 0.565791 0.297140 -0.265649 -0.425341 0.155832 0.326158 -0.358209 -0.227783 -0.031313 
1198 -0.144209 0.024419 -0.222707 -0.628394 -0.561130 0.347879 -0.220556 -0.846802 -0.250325 0.131678 0.138769 -0.667805 0.117847 0.308270 -0.196241 -0.023070 -0.426879 -0.399588 0.730274 -0.003604 -0.063491 -0.069672 -0.306546 -0.289788 -0.281155 -0.246230 0.168087 -0.622562 -0.697139 0.208429 -0.389509 -0.569639 0.259214 -0.416151 -0.263611 -0.040050 0.017977 0.030731 0.058634 0.087896 -0.170462 -0.005802 -0.176728 0.149234 0.437688 -0.176354 -0.155359 0.017226 -0.014923 -0.216927 0.072784 0.088929 -0.315731 -0.181089 0.601597 -0.170487 -0.016003 0.056100 0.088297 -0.243510 -0.454230 -0.003142 -0.011264 0.041803 0.540499 0.256163 -0.154283 0.614825 -0.010531 0.026130 -0.349941 -0.120436 -0.560553 0.202917 -0.098648 0.013116 0.006929 0.380318 -0.080139 0.541762 0.221777 0.179783 -0.611357 -0.099956 -0.101132 -0.283263 0.042253 -0.415550 1.065133 0.301740 0.746083 -0.364344 0.381274 -0.190272 0.205722 -0.186358 -0.177667 0.873299 0.127280 -0.129773 -0.137677 0.615786 -0.263615 -0.066289 0.381942 -0.238085 -0.151419 -0.102479 -0.215031 -0.277497 0.163666 -0.244837 0.175874 -0.067374 0.101365 0.587191 0.398803 -0.105901 0.347623 -0.043321 0.183850 0.477248 -0.521453 -0.169630 0.005852 0.204073 -0.456275 -0.069113 
858 -0.464966 0.212276 0.054770 0.107136 0.055305 -0.164103 -0.085333 -0.370848 -0.644347 0.011772 0.469391 -0.841795 0.387069 0.443001 -0.276266 0.262722 -0.101273 0.187669 0.599542 -0.026453 -0.357523 0.177098 -0.001135 -0.125219 -0.042530 0.714994 0.337410 -0.609662 -0.417569 0.193392 -0.026641 -0.060611 -0.153679 -0.131415 0.556859 -0.264160 -0.201289 0.115233 0.380946 -0.170841 0.368305 0.429231 -0.279385 0.007262 0.044941 -0.493553 -0.309631 -0.232530 0.614909 0.298460 -0.000799 0.263009 0.195262 -0.692724 0.282864 -0.006888 0.031385 0.029073 -0.585971 -0.103846 -0.051740 -0.456705 -0.285039 -0.067487 -0.247007 -0.081493 -0.154502 0.133961 0.415255 0.185102 -0.025367 -0.076028 0.207702 0.069342 -0.151872 0.019689 -0.040469 -0.054758 -0.037343 0.116142 0.021971 -0.280007 -0.507998 0.059612 -0.032222 0.132858 -0.016210 -0.062118 0.462421 0.261458 0.086962 -0.194328 0.344287 -0.430377 0.188312 -0.062449 0.332333 0.123893 -0.191130 -0.786602 0.153399 0.617081 -0.273207 0.406510 0.495514 -0.095988 -0.199768 -0.091481 -0.091048 -0.276570 -0.046644 -0.478391 -0.371968 0.643734 0.212664 0.282049 0.494599 -0.389225 -0.187350 0.204910 -0.362051 -0.206043 -0.238736 -0.305737 0.495155 0.219596 -0.238844 0.044697 
589 0.023135 -0.226045 0.407664 0.030895 -0.345916 -0.410831 -0.333447 -0.632714 -0.042229 -0.122769 0.307965 -0.495008 0.019544 -0.051790 -0.542361 0.327851 -0.889033 0.220637 0.325940 -0.009137 -0.454167 0.350656 -0.155813 -0.407494 0.164019 0.251770 -0.141583 -0.248433 -0.379600 0.453485 0.417734 -0.086796 0.374807 -0.430638 0.283856 -0.178908 0.032484 0.047621 0.619393 -0.148678 -0.150686 0.391770 0.079165 -0.110407 -0.012509 0.187397 -0.405678 -0.619931 0.131404 0.018428 0.182068 -0.181995 0.109563 0.023027 -0.296254 -0.043681 0.334292 -0.042500 0.029096 0.127257 0.135860 -0.097369 0.258708 0.142072 -0.001727 0.362317 -0.561711 0.032193 0.176184 0.519816 -0.353645 -0.257824 -0.250853 0.071269 -0.551597 0.391696 0.380369 0.219405 -0.226701 0.220642 -0.598358 -0.028877 -0.573322 -0.098782 0.098241 -0.453156 0.239110 -0.257882 0.765460 0.306480 -0.202673 -0.248927 -0.266288 -0.432793 -0.273115 -0.110012 -0.661823 0.267446 0.463173 -0.254050 0.034119 0.512575 -0.030141 0.148662 0.475353 -0.160712 0.469188 -0.167831 -0.433144 -0.105786 -0.287820 0.111451 -0.331827 0.335791 -0.231583 0.070173 -0.422788 -0.227987 -0.319031 -0.512129 -0.992210 0.186315 -0.084062 -0.153458 0.157859 -0.263936 0.069670 0.329576 
2959 0.028136 -0.377021 -0.228775 -0.021695 0.042565 0.210707 -0.585626 -0.355910 0.100786 0.591951 0.047547 -0.252521 0.567468 0.253517 -0.397315 0.031760 -0.185414 0.593452 0.843285 -0.329254 0.275732 0.100119 0.141568 0.438303 0.037081 0.525123 -0.104069 -0.025077 0.469305 0.047736 -1.098437 -0.555977 -0.097127 -0.050162 -0.303393 0.270843 -0.575872 -0.550492 -0.761803 -0.459299 -0.683429 -0.204424 0.334393 0.262444 -0.027370 -0.112150 -0.036522 -0.206293 0.530941 -0.152164 -0.339496 -0.161864 0.160133 -0.185161 0.040315 -0.634877 0.140968 -0.099300 -0.135536 0.711534 -0.268312 0.352880 -0.073568 -0.241224 -0.067166 -0.631942 -0.201313 -0.007257 0.458735 0.334992 -0.058616 0.268645 0.472703 -0.732578 -0.189481 -0.198920 0.133262 -0.371011 -0.060433 0.735756 -0.193963 0.386095 -0.729069 -0.338202 0.082534 -0.006635 -0.039809 -0.231115 0.795380 0.154383 -0.216370 -0.476750 0.216025 0.294187 0.214745 0.318878 0.031499 0.038814 -0.432174 0.452054 0.335664 0.454111 0.324771 0.012735 -0.204286 0.079545 -0.337480 -0.657781 0.027902 0.240363 0.204526 -0.107264 0.138433 0.136221 -0.081581 0.161158 0.067939 -0.196050 0.083557 -0.280914 0.144381 0.045510 0.103367 0.005407 0.438544 0.059698 -0.149385 -0.071250 
480 0.392720 0.115408 -0.177216 0.152538 -0.185550 -0.048845 0.170617 -0.872122 -0.278576 -0.133966 0.095602 -0.467894 0.305886 -0.012914 0.005921 -0.402470 -0.958132 0.147302 0.419793 -0.175597 -0.131876 0.345730 -0.436839 -0.288347 -0.023763 0.320415 -0.112572 -0.099124 0.002582 0.461353 0.248604 0.100737 0.265073 -0.521434 0.451913 0.065589 -0.110398 -0.463992 -0.224454 -0.099866 0.272930 0.306613 -0.133186 -0.255786 -0.840752 -0.067530 -0.245916 -0.113575 0.112218 0.132209 0.502573 -0.396383 0.009302 -0.098770 0.078387 0.030166 0.131853 -0.368437 0.270109 -0.185195 0.190987 0.271371 0.263165 0.380014 -0.271403 0.798708 -0.248847 -0.095345 0.282543 0.094214 -0.214358 -0.412793 0.346593 -0.371583 0.056176 0.252374 0.165796 -0.098671 -0.460216 0.163055 -0.122563 -0.069829 -0.342792 0.086640 0.035474 0.057146 -0.205203 -0.169143 0.697206 0.921189 -0.093218 0.062427 -0.147719 -0.354448 0.071673 0.388376 -0.377761 0.235951 0.419441 -0.309273 0.129826 0.941549 -0.317920 -0.155466 0.178268 0.313139 0.184496 0.292340 -0.149816 0.358370 -0.206728 -0.115526 -0.035036 0.171055 0.330862 0.214559 -0.237602 0.266150 -0.071153 -0.288229 -0.774539 -0.218954 -0.510211 0.531737 -0.323041 -0.710825 0.223291 0.142892 
457 -0.040414 -0.361341 0.196083 0.219735 -0.258324 -0.059453 0.194615 -0.810477 -0.174941 -0.059151 0.449132 -0.299093 0.010942 -0.291583 -0.161751 -0.277064 -0.419248 0.247326 0.441745 -0.388254 -0.476444 0.212040 -0.122868 -0.266264 -0.024084 0.118860 0.163405 -0.175429 -0.230089 0.314065 0.225704 -0.053880 -0.234535 -0.457014 0.203093 0.074663 0.323883 -0.619340 0.156607 0.246146 0.013063 -0.230736 -0.064527 -0.283936 -0.234346 -0.076703 -0.120580 0.232397 0.185553 0.387835 0.285835 -0.488192 -0.034623 0.093779 0.212494 -0.008962 -0.077538 -0.239306 0.216259 0.708647 0.002383 -0.185022 0.053006 0.508287 0.039208 0.710071 -0.177676 -0.176163 0.287103 0.589927 -0.371144 0.048616 0.489846 -0.216723 -0.229963 0.469494 0.318056 -0.322031 -0.086468 0.390790 -0.140627 0.177980 -0.397723 0.047992 0.008275 -0.166598 -0.050241 0.224192 1.133078 0.293780 0.054307 0.124703 -0.133966 -0.228718 0.194567 -0.180665 -0.661919 0.166960 0.066264 -0.160490 -0.180513 1.170490 -0.080132 -0.128829 0.376691 0.299126 -0.193367 0.080024 -0.722151 -0.162074 -0.624083 -0.061683 0.097439 0.666892 0.513492 -0.204955 -0.008283 0.411175 0.469836 -0.394033 -0.787880 -0.293393 -0.484997 0.069737 0.174266 -0.366413 0.047785 -0.043909 
1 0.464462 0.327457 0.483188 0.195874 -0.163751 -0.556409 0.242824 -0.667107 -0.306031 -0.239330 0.031454 -0.065363 0.356873 -0.239015 -0.560568 -0.232811 -0.255508 -0.054717 0.024053 -0.295786 -0.344169 0.295464 -0.354619 0.493531 -0.494130 -0.165165 0.250907 -0.728126 0.119554 -0.115413 0.036572 0.397902 0.075895 0.112722 -0.225153 -0.358458 0.384837 0.197972 0.465600 -0.344169 0.220678 -0.062143 0.388740 -0.421681 0.112922 0.210804 0.087941 0.020646 -0.454380 -0.098420 -0.022593 -0.210813 -0.285340 0.253080 -0.256853 0.127782 0.004354 -0.327370 -0.093709 1.071516 -0.005729 0.087955 0.169615 -0.567560 -0.076705 0.257617 -0.386458 -0.233654 0.140063 0.151373 -0.210637 -0.285683 -0.061249 -0.366746 -0.030523 0.424703 0.419795 0.097800 0.039341 0.261303 -0.025458 0.125993 -1.104491 0.250672 -0.083747 0.289831 -0.041030 0.017849 0.925989 0.768899 -0.638746 -0.041414 0.034190 -0.601822 -0.128759 0.066090 0.089712 0.061495 -0.143717 0.556226 0.465925 0.922956 0.068069 0.393107 0.451649 -0.035028 0.315116 -0.306714 0.289341 -0.172148 -0.933756 -0.238295 0.041415 0.104632 -0.014758 -0.067461 0.225497 -0.239913 0.008443 0.021464 0.207527 -0.072112 -0.338842 0.004882 -0.086222 -0.357648 -0.394088 0.323973 
47 0.515054 -0.240174 -0.010250 0.483106 -0.448238 0.022719 -0.126533 -1.134745 -0.034101 -0.066759 0.309096 -0.086172 0.341915 0.230130 -0.069792 -0.008783 -0.236103 0.425963 0.620689 0.050155 -0.052618 0.128905 -0.269432 0.364852 -0.290661 -0.074566 0.303782 -0.358817 0.039674 0.682216 0.075201 0.454994 -0.362560 -0.593614 0.282133 -0.366774 -0.019136 0.321879 0.320674 0.183496 0.244195 0.122617 0.172455 -0.169476 -0.099686 0.385584 0.453160 0.239083 0.291013 0.390691 -0.281365 -0.492253 0.309893 0.545992 -0.620887 -0.163587 0.232026 -0.138713 -0.614435 0.720537 -0.180207 0.327955 -0.271724 -0.379045 -0.164743 0.228952 -0.137859 0.229982 0.589276 -0.038440 -0.561363 0.040697 -0.192605 0.175521 0.162282 0.183776 0.222367 0.084361 -0.244505 0.126282 0.580504 -0.136663 -0.495065 0.196169 0.230228 0.207577 0.365136 -0.349755 1.042447 0.122976 -0.380394 0.020782 -0.449850 -0.281540 0.340210 -0.199585 0.037052 -0.227146 -0.145275 -0.221394 0.162406 0.748123 -0.299911 0.423334 0.423433 0.097476 0.072177 0.129062 0.478494 -0.211250 -0.450836 0.029455 0.372063 0.228746 0.190928 -0.330506 0.060247 -0.145870 0.036021 0.243375 -0.340030 -0.531553 -0.205707 0.276230 0.100807 -0.273354 0.008292 -0.264460 
608 -0.409025 -0.045337 0.125788 0.008572 -0.235480 0.242115 -0.131981 -0.820847 0.204825 0.106251 0.666802 -0.919982 0.309413 -0.164595 -0.995041 0.184815 -0.258115 0.571876 0.229916 -0.151858 -0.254918 -0.006817 -0.488662 0.075430 -0.044944 -0.214827 0.365014 -0.415632 -0.003304 0.443441 0.841629 0.306031 0.188018 -0.286530 0.521384 -0.633051 -0.064905 0.002447 0.633018 -0.241437 0.566666 0.058254 -0.001427 0.167127 0.215608 -0.092226 -0.107109 -0.370308 0.429801 -0.285407 -0.039159 0.236708 -0.159484 0.129061 -0.196706 0.035612 -0.104068 -0.256859 -0.258151 0.320692 0.585912 0.042850 0.130678 0.424158 0.042828 0.458518 -0.411639 -0.381121 0.322159 -0.275408 -0.270973 -0.084335 0.129264 -0.206378 -0.076968 0.501599 0.005494 0.087907 0.090705 -0.162813 -0.212982 0.209470 -0.291612 -0.618121 0.053456 0.007496 -0.240125 -0.311762 0.784028 0.116932 0.435923 -0.208392 -0.055998 -0.140080 0.071055 -0.233544 -0.224803 0.252814 -0.178797 -0.340202 -0.124322 0.586601 0.071917 0.150917 0.209256 -0.404300 0.448484 -0.251756 -0.362645 -0.030302 -0.024756 -0.160270 0.522420 0.225555 0.322396 0.409455 0.315036 -0.402151 0.336168 0.077924 -0.510001 0.019262 -0.125525 0.226251 0.289145 -0.189532 -0.027890 0.395789 
150 0.310611 -0.335513 0.009322 0.175439 0.001007 -0.024302 0.148067 -1.034034 -0.548918 -0.268977 0.406206 -0.190598 0.343826 0.317717 -0.368571 -0.432408 -0.159721 0.111703 0.702087 -0.219553 0.079451 0.600125 -0.358134 0.027686 0.056954 -0.155258 0.289748 -0.593236 -0.122288 0.410773 0.232718 -0.252608 0.207687 -0.467960 0.628561 -0.187670 -0.004497 0.536589 0.522409 0.055896 0.809498 -0.274315 -0.103189 -0.070058 -0.035954 -0.130210 0.333862 0.379016 -0.005736 -0.070091 0.031196 -0.247249 -0.161771 0.618892 -0.219047 -0.621432 -0.110148 -0.410126 -0.046092 0.465844 -0.016201 0.080821 0.420161 -0.164496 0.126619 -0.039285 -0.313464 -0.402884 0.061329 -0.144887 -0.225932 -0.577545 -0.243170 0.226930 0.082994 0.554401 0.147872 0.036434 -0.130792 0.266872 0.381479 -0.224274 -0.628210 0.146314 0.219350 0.266322 0.557664 -0.191929 0.676151 0.073294 -0.391334 0.433553 -0.286766 -0.201768 0.117834 -0.048481 -0.261033 0.504619 0.294306 0.225654 -0.038065 0.467296 -0.234134 0.143674 0.341430 -0.125110 -0.047394 0.427578 0.252878 -0.042441 -0.719056 0.032921 -0.308277 -0.385923 0.536788 -0.170627 0.000062 -0.597709 -0.412282 0.147441 -0.248450 -0.308939 0.074910 0.061037 0.161968 -0.239000 0.105686 -0.057356 
2762 0.264688 -0.171311 -0.449508 -0.120017 -0.020756 -0.092282 0.219186 -0.819624 0.262296 0.381659 0.202148 -0.433446 0.228385 0.199710 -0.327888 0.344372 -0.550948 0.045314 0.754365 -0.190380 0.109299 0.322852 0.651053 -0.197853 0.285315 -0.139495 0.099431 0.087282 -0.050169 0.590426 -0.573246 -0.300887 -0.146146 -0.255979 -0.104578 0.468882 -0.372368 -0.247238 -0.571649 -0.723719 -0.299027 0.046410 -0.265262 0.190018 0.594330 -0.085082 0.159032 -0.611227 -0.129975 -0.122702 -0.018941 -0.345531 0.420939 -0.133295 -0.060249 -0.330089 0.304991 0.046441 -0.056452 0.195472 -0.178005 -0.296658 -0.019052 0.451160 0.222296 -0.978523 -0.506876 -0.078769 0.354021 -0.109480 -0.166875 -0.050653 -0.093804 -0.243121 0.202424 -0.320180 -0.191167 -0.416758 -0.118981 0.118994 0.255780 -0.298360 -1.111349 0.423443 -0.189679 -0.641524 -0.238551 0.056964 0.579265 0.440312 -0.824156 -0.021880 -0.261372 0.042548 0.759336 0.689029 -0.125863 -0.221736 -0.343657 -0.234831 0.114384 0.071820 -0.081969 0.044761 -0.034547 0.443582 -0.056594 0.061196 -0.581382 0.472639 0.038667 0.527608 -0.117726 -0.150713 -0.386424 -0.030404 0.102285 0.610166 -0.136913 0.685347 -0.035663 -0.172554 0.050007 -0.350237 -0.262335 0.024524 0.491431 -0.115803 
1270 -0.418653 0.118905 -0.096982 -0.620760 -0.173586 -0.152893 -0.251491 -0.927507 0.181515 -0.072532 0.047346 0.102962 0.687423 0.639162 0.533491 0.094927 -0.437188 -0.337451 0.784423 0.169615 0.101497 -0.243421 0.087691 0.304898 -0.020850 -0.303187 -0.006369 0.025907 0.448163 -0.265500 0.124710 0.164252 -0.146288 -0.119719 -0.613721 -0.417061 -0.086488 -0.206975 0.252666 0.334583 -0.208047 -0.379897 -0.151128 -0.943128 0.053059 -0.365493 0.083068 0.094061 0.243698 0.042638 0.069644 0.069381 0.321401 -0.072116 -0.016094 -0.327003 0.071678 0.474222 0.135180 -0.113704 -0.335130 -0.168416 0.377711 -0.061927 0.474255 -0.129715 -0.292796 0.347934 -0.205465 0.165276 -0.211675 -0.182590 0.497632 -0.133753 -0.017325 -0.368137 -0.379043 0.799421 0.292164 -0.134456 -0.241045 -0.046340 -1.182369 -0.006874 -0.052530 -0.300009 -0.113624 0.067221 0.778303 0.401649 0.267402 -0.423775 0.193719 0.326114 0.179159 0.383245 -0.124650 0.389835 0.082313 0.051298 -0.059086 0.394587 0.522998 -0.585175 0.684957 0.071297 0.291042 0.336423 -0.312475 0.012724 -0.237129 -0.189096 0.177624 0.089193 -0.111042 -0.131332 -0.046410 -0.667883 0.086747 -0.298977 0.224038 0.492552 -0.235622 -0.563461 -0.349210 -0.785921 0.316613 0.135752 
4993 0.017878 -0.558035 0.095661 -0.285891 0.121585 -0.075044 -0.114220 -0.692910 -0.643801 0.267839 0.403890 0.130379 0.133336 0.541604 0.483089 0.298556 -0.267976 0.030366 0.068859 0.282236 -0.126998 0.081602 0.050599 -0.069377 -0.414894 -0.746967 0.100003 -0.294166 0.354005 -0.375398 -0.339179 -0.059631 -0.118620 0.251833 -0.159634 0.086880 0.456493 -0.145713 -0.269547 -0.168160 0.347077 0.609715 0.472654 0.348386 0.372384 -0.136730 0.100145 -0.090981 -0.339642 0.046581 -0.195029 -0.768321 -0.687706 -0.066530 -0.302012 0.199467 -0.631698 -0.185098 -0.095018 -0.253528 -0.175389 -0.275332 -0.268091 -0.107162 -0.227744 -0.165437 -0.083185 0.465682 0.146362 -0.308321 -0.206474 -0.395689 0.454981 -0.019993 -0.288231 -0.031349 0.692185 0.007717 -0.317639 0.343379 -0.133664 -0.028398 -1.552736 -0.372416 -0.017876 -0.089306 -0.391112 0.074883 0.594868 0.476583 -0.221283 0.119737 0.595664 0.521033 -0.171248 0.270493 0.381360 0.061180 0.465838 0.351545 0.856608 0.339085 -0.332190 -0.436829 -0.316535 0.216058 -0.044878 -0.070880 0.063944 0.574466 0.334053 0.397409 0.307856 -0.499998 -0.224292 -0.107856 -0.173428 -0.454975 -0.146878 0.833818 -0.339460 -0.174091 -0.053703 0.414660 0.077380 0.238233 0.062426 -0.414522 
2028 -0.134941 0.109058 -0.337384 -0.003283 -0.033573 -0.144910 -0.003792 -0.451661 -0.007164 0.311379 0.170985 -0.184852 0.611361 0.094385 -0.489022 0.111060 -0.147171 0.388444 1.131289 0.426428 -0.023631 -0.167833 0.496164 -0.042380 0.530382 -0.395092 -0.572720 -0.299436 -0.309747 0.639994 0.702379 -0.217502 0.562139 -0.039752 -0.334419 0.220786 -0.086484 -0.438501 0.363916 0.497072 -0.379426 0.226390 0.012046 -0.348252 0.132483 0.091255 0.580808 -0.660609 -0.001027 -0.061683 -0.138229 -0.576038 0.197279 -0.265327 -0.221299 0.365842 -0.722474 -0.157316 0.244075 0.090076 -0.147963 -0.355850 0.134543 -0.171594 0.325488 -0.065063 -0.277383 -0.252872 0.269936 0.277979 0.376233 0.176213 0.451911 0.245937 0.152160 -0.662656 -0.026684 0.406329 0.076352 -0.389271 0.427007 -0.198968 -1.003725 -0.570037 0.103378 -0.657594 0.169619 -0.225989 0.727594 -0.234862 -0.004180 0.156595 -0.054427 -0.126508 0.136330 0.542728 0.199246 -0.343936 -0.120644 -0.074328 -0.451352 0.556341 -0.207219 0.348327 -0.367097 -0.202311 0.125321 -0.438897 0.092484 -0.115189 0.445892 0.319187 0.089217 -0.045086 0.016051 -0.475170 -0.465710 0.144513 -0.214420 -0.541625 -0.302976 -0.058297 0.545803 -0.131835 -0.427334 0.141848 0.308390 -0.240689 
1197 -0.428935 0.114965 -0.523860 -0.230878 -0.294409 0.007281 -0.355540 -0.739418 -0.363472 -0.385010 -0.676215 -0.117667 0.712540 0.085325 -0.047850 0.269466 -0.546558 0.066046 0.427411 0.180864 -0.316282 0.153079 -0.291078 0.601606 -0.916978 -0.585276 -0.137078 -0.743918 -0.517548 0.055597 -0.084635 -0.347821 0.290428 -0.472077 -0.277811 -0.618563 -0.247444 -0.537663 0.175971 -0.059152 0.195658 -0.071891 -0.200995 -0.110663 0.083185 -0.360086 0.152863 0.217113 0.231789 -0.355670 0.052509 -0.327734 -0.063304 -0.038160 0.250677 -0.268002 -0.340659 0.243734 -0.336305 0.062836 -0.210524 -0.521325 -0.210843 0.378410 0.308324 -0.176789 0.156598 -0.026338 0.095600 0.235275 -0.237443 -0.222519 0.117937 -0.681117 -0.742851 -0.427659 -0.050898 0.156603 0.555301 -0.158738 -0.182050 -0.117636 -0.820023 0.122077 0.371824 -0.171466 -0.239024 0.157003 0.528053 0.077328 0.499027 0.330980 0.568204 -0.773517 -0.130657 0.152197 -0.043280 0.162025 -0.141718 -0.491250 0.241185 0.346033 -0.220288 -0.289578 0.137508 -0.194084 -0.106187 0.201212 -0.223668 -0.575993 0.147367 0.128213 -0.000763 -0.099636 0.084694 0.454812 -0.196462 -0.450041 -0.170463 -0.401136 -0.119869 0.056964 -0.395476 -0.196022 0.037001 -0.532643 -0.356884 -0.356990 
1136 -0.162812 0.248503 0.134910 -0.794305 -0.066784 -0.144027 -0.280843 -0.781790 -0.390224 -0.326696 -0.349636 -0.304255 0.505636 -0.013367 -0.248841 0.312760 -0.376902 0.208331 0.671439 0.315852 -0.574108 -0.260688 -0.813077 -0.360296 -0.807806 -0.366265 0.152140 -0.713118 0.112304 -0.203900 -0.140769 -0.262190 0.180479 -0.041752 -0.031445 -0.386622 -0.018931 0.099791 -0.000885 -0.230398 -0.350644 0.301122 0.293055 -0.373144 0.055610 -0.603453 0.111388 -0.153105 0.299464 0.125319 0.025825 -0.113920 -0.254695 -0.184858 0.031238 -0.042275 0.038390 -0.361661 0.126135 0.017565 -0.583264 -0.454380 0.222195 0.561998 0.676790 0.432699 -0.381296 0.039040 0.640364 0.179297 -0.369465 0.320766 -0.120252 -0.457656 0.016680 0.196947 -0.408112 0.016574 0.395877 0.233778 -0.088281 0.386534 -0.941302 -0.288083 -0.146901 0.141493 0.157165 -0.583371 0.431435 0.278973 -0.181507 -0.521889 0.446671 -0.661023 0.271302 0.064776 0.541909 0.581456 0.155208 -0.111456 -0.200229 0.261156 -0.069910 0.010773 0.590896 -0.043907 0.106043 -0.227452 -0.378881 -0.291953 -0.119281 0.097229 -0.157967 0.000284 0.509407 0.643024 -0.073571 -0.013890 -0.133939 0.219845 -0.001298 0.136911 -0.376701 -0.115198 -0.175435 -0.241423 0.114228 0.403983 
364 -0.180966 -0.082432 -0.501976 0.157384 -0.024926 -0.109651 0.165097 -1.220211 -0.149762 0.263520 0.205756 -0.533852 0.173514 0.175056 -0.452118 -0.167406 -0.687968 0.230704 0.162158 -0.343330 -0.348750 0.378457 -0.522356 0.319662 0.137342 -0.427456 -0.149390 0.203185 0.207745 0.475001 0.150025 0.005405 -0.034406 -0.201761 0.493477 -0.120787 0.016556 0.020252 0.073519 -0.012909 0.163490 -0.088366 -0.101084 -0.174762 -0.287921 -0.148470 -0.113245 0.567326 -0.692857 0.013815 0.124237 -0.346193 -0.527148 0.200063 -0.185470 0.166045 -0.531153 -0.523974 0.093454 0.343056 -0.181135 -0.043576 0.593330 -0.166708 -0.035842 0.703615 -0.495810 -0.388743 0.392473 0.150951 -0.503825 -0.189548 0.204725 0.703876 -0.055191 0.371493 -0.013033 -0.233134 0.495144 0.528688 -0.434884 0.068803 -0.636880 -0.142651 0.321880 -0.147640 0.145852 -0.457803 0.828196 0.581528 0.130356 -0.095831 -0.064807 -0.504620 0.477074 0.261437 0.249466 0.309183 0.178005 -0.404617 -0.204391 0.724770 -0.030558 -0.544547 0.330290 0.157439 0.031816 0.081512 -0.435313 0.037567 -0.784806 -0.086983 -0.199522 0.260157 0.283518 -0.115358 0.000265 0.267546 -0.012659 -0.487558 -0.802488 -0.022224 0.146947 0.476969 0.190335 -0.104214 -0.025371 -0.011019 
32 0.118038 -0.323421 0.585696 0.537858 -0.340515 -0.205913 0.465504 -0.709400 0.234516 0.128043 -0.215065 -0.347416 0.447410 0.283202 -0.670331 -0.252801 -0.302117 0.245837 0.514550 -0.200967 -0.325912 0.277282 -0.461922 0.280098 -0.253618 -0.309681 0.090561 -0.384284 0.146008 0.365553 0.013744 0.047185 -0.245427 -0.633770 0.340800 -0.080329 0.243061 0.008894 -0.355056 0.299506 0.239743 -0.236940 0.280010 -0.820392 0.012995 0.192669 0.414120 -0.088287 -0.389878 0.460763 0.194342 -0.124467 0.107120 0.070633 -0.730789 -0.415149 0.261001 -0.329337 -0.605236 0.415037 0.042811 -0.139599 -0.440419 -0.321416 0.127944 0.539613 0.099245 -0.141569 0.006097 0.109822 -0.310737 0.128241 -0.351243 0.050067 0.370781 -0.018668 -0.081608 -0.065912 0.342576 0.559254 0.004148 -0.854865 -0.677957 0.286015 0.068381 0.019305 0.350677 -0.491756 0.732577 0.707944 -0.495043 -0.329389 -0.501136 -0.822393 -0.189888 0.020827 0.233956 -0.238179 0.058874 -0.245629 0.293495 0.991880 -0.164067 0.080975 0.046501 0.036612 0.094492 0.402932 0.284441 0.276546 -0.434067 -0.172575 0.186852 -0.422995 0.562757 0.747341 0.308121 -0.777506 -0.292202 0.202917 -0.449974 -0.204752 -0.046853 0.236919 0.192432 -0.062461 -0.060635 0.041309 
4226 -0.242130 -0.124169 -0.173232 0.056865 0.598249 0.193558 -0.070134 -0.462768 -0.084258 -0.200298 -0.355462 -0.755442 0.071827 0.590692 0.109805 0.363580 0.513093 0.611156 0.268817 0.014056 -0.503186 -0.136501 -0.462741 -0.586628 0.155404 -0.241851 0.201660 0.057708 0.213122 0.009114 -0.161655 -0.488769 0.120195 0.154592 -0.127555 0.045736 0.292339 -0.228344 0.521448 -0.789681 -0.558506 0.161189 0.263142 0.525228 0.734039 -0.483329 0.298768 -0.068068 0.224450 0.150790 0.034919 0.499868 -0.636722 -0.049265 -0.296910 -0.359437 0.201424 0.118388 -0.436477 0.724257 -0.430204 0.311261 -0.339200 -0.704442 0.229747 0.180590 0.405138 0.196687 0.241547 0.300263 -0.060763 -0.089640 0.552203 0.348702 -0.429513 -0.320809 0.199071 -0.260396 0.343752 0.120010 0.653054 0.125983 -1.093128 -0.471116 0.550517 -0.088122 -0.111584 -0.142439 0.315561 0.816093 -0.089250 -0.099582 0.198850 0.422552 0.112171 0.257405 0.246916 0.407244 0.123342 0.275937 0.937288 0.108889 -0.139532 0.109627 -0.073457 0.119284 -0.028790 0.198123 -0.543458 0.587755 0.080857 0.176392 0.454607 -0.263619 -0.907859 -0.309382 -0.381343 0.108710 -0.415317 -0.019553 -0.329839 -0.038946 0.436919 -0.210464 -0.320523 -0.114103 -0.280134 -0.323652 
1193 -0.363522 -0.483358 -0.497270 0.194896 -0.439430 -0.449035 -0.262301 -0.678979 -0.063827 -0.559154 0.393014 -0.121926 0.636267 0.258291 -0.186868 -0.424606 -0.481594 -0.194292 0.946574 -0.082062 -0.698723 -0.248007 -0.493971 -0.083266 -0.187244 -0.253946 0.392378 -0.505590 -0.058225 0.140250 -0.228416 -0.564434 0.084117 0.198113 0.553195 -0.388597 -0.361777 -0.378724 -0.155674 -0.345077 0.257074 0.202394 -0.722625 -0.125588 0.106977 0.207331 -0.223688 -0.440093 0.444177 0.235057 -0.388981 0.211749 -0.432866 -0.205161 -0.089293 0.260111 -0.451897 0.545026 0.280981 0.009169 0.249055 -0.216654 0.293236 0.135973 0.700667 0.814436 -0.022029 0.702521 0.739544 0.128400 -0.012487 0.267892 0.303987 -0.072189 -0.389828 0.040470 0.218849 -0.045060 0.290428 -0.231767 0.305766 0.044244 -0.784327 0.278098 0.435187 -0.203409 -0.272487 0.025292 0.607032 0.137434 0.301623 -0.356588 0.233995 0.025874 0.265732 -0.170679 0.226978 0.337241 0.141098 0.081568 0.154318 0.167473 0.174365 0.023106 0.658875 -0.434884 0.004283 0.201936 0.071260 -0.460401 0.310536 -0.136788 -0.078973 -0.214983 -0.142444 0.002393 0.484757 -0.167932 0.034628 0.080299 0.085980 0.176247 -0.408939 0.059628 -0.298374 -0.252931 0.139225 -0.291386 
5952 0.360992 -0.367927 0.426592 -0.441371 0.741042 0.110102 -0.379756 -0.879954 -0.756690 -0.142341 0.005619 -0.151057 0.517508 0.775274 -0.104635 -0.087557 -0.255318 -0.126920 -0.264757 -0.314401 0.422561 -0.105264 -0.161860 -0.176174 -0.174043 -0.206979 -0.083969 -0.000368 0.606142 -0.316628 -0.905751 0.185344 0.073686 0.568738 0.345981 -0.624659 -0.070204 0.018449 0.008726 0.226398 0.235087 -0.089571 0.021876 0.406017 0.720483 0.085271 0.477353 -0.476173 0.607349 0.245744 0.707717 -0.068982 -0.529251 -0.125503 -0.417222 0.532327 -0.323257 -0.569479 0.283110 0.293908 -0.267648 -0.463037 -0.268738 0.106412 -0.151065 0.468711 -0.475679 0.220874 0.458995 0.451438 -0.358221 -0.296847 0.653924 0.007283 -0.004652 -0.167982 0.049927 0.104396 -0.072611 0.358733 -0.012225 -0.326492 -1.147334 0.244895 -0.467858 -0.234687 -0.033989 0.261303 0.488948 -0.014038 -0.019889 0.253422 0.058380 0.129082 0.031457 0.008821 0.611052 -0.542636 0.735924 -0.259309 0.433386 -0.052248 -0.727858 -0.398662 -0.100025 0.673743 -0.455946 -0.539399 -0.179492 0.520656 0.074794 -0.150032 0.464365 -0.022581 -0.265452 -0.219447 -0.085535 0.098451 -0.191724 0.533025 0.315984 -0.243062 0.480444 -0.100737 0.093269 0.650384 -0.002064 -0.733787 
588 -0.187453 -0.191898 0.100583 -0.097567 -0.752036 -0.258850 -0.369785 -0.718580 -0.024391 0.038782 0.108652 -0.567308 -0.277278 0.138094 -0.837040 0.305302 -0.916614 0.378464 0.330662 0.389948 -0.180561 0.704354 -0.449059 -0.384015 0.181041 -0.401745 0.425854 0.239462 -0.210036 -0.006992 0.203265 0.070459 0.321175 -0.193462 0.325955 -0.060059 -0.690662 0.115438 0.530649 -0.261000 0.330958 0.726785 -0.070200 -0.171797 -0.099064 -0.337975 0.031483 0.030409 -0.322191 0.111660 0.630829 0.117005 -0.065206 0.031073 -0.162297 -0.221364 0.477565 -0.284734 -0.539870 0.195149 -0.146647 -0.193089 0.198415 0.110439 -0.448347 0.325837 -0.180977 -0.380181 0.010925 -0.009572 -0.387161 0.077206 0.351926 -0.168541 -0.507167 0.015801 0.569126 0.130740 0.365550 0.440600 -0.041783 -0.096677 -0.407805 0.078909 0.150196 0.191216 -0.256959 0.003568 1.081863 0.194405 0.328985 -0.019885 -0.620467 0.136508 -0.052978 0.055011 0.056251 0.573941 0.258592 0.244356 0.221019 0.795943 0.308196 0.069831 -0.296794 0.147089 0.489060 -0.132616 -0.133692 -0.356979 -0.215190 0.004822 -0.111352 0.350029 0.796239 -0.122006 -0.007516 0.267654 -0.227829 -0.797962 -0.854055 -0.047080 -0.232774 -0.206436 -0.316705 -0.571640 0.657041 -0.134224 
1221 -0.215190 0.147184 0.032424 -0.411057 -0.174476 0.499766 0.352535 -1.013392 0.022332 -0.527952 0.501568 -0.026543 0.402326 0.423257 0.254920 0.028542 0.030676 -0.121881 0.771147 0.014575 -0.353223 0.212197 -0.380194 -0.161156 -0.101857 0.251756 0.099140 -0.045590 -0.491852 0.346588 -0.515843 -0.163662 0.361264 -0.651005 -0.438435 -0.043075 0.469992 -0.017809 0.158484 -0.154002 0.304426 0.109174 -0.476954 -0.678255 -0.087198 -0.679478 0.165682 -0.213027 0.498988 0.115182 -0.403049 0.087404 0.533441 -0.235694 0.365698 0.745779 -0.255718 0.581427 0.520459 0.239530 0.467180 -0.223192 0.211506 -0.033027 0.116127 -0.034112 -0.326282 0.298682 -0.239170 0.676594 0.042232 -0.443092 0.241999 -0.318721 -0.181809 -0.218177 -0.187774 0.297938 0.703105 0.412611 0.460245 0.014458 -0.698021 -0.192578 0.089967 -0.100276 -0.041752 -0.647837 0.684413 0.349973 0.177969 -0.406350 0.218805 -0.228580 -0.643294 0.460872 0.008526 0.191106 0.022156 -0.281811 0.073563 0.000913 0.097550 0.118512 -0.289361 -0.576064 -0.333720 -0.157384 0.180673 -0.120044 0.266251 -0.271908 -0.247369 -0.139599 -0.396873 0.251835 0.110074 -0.431867 -0.289660 0.361124 -0.087823 -0.404152 -0.509290 0.057773 0.415311 -0.159522 0.061225 -0.321023 
590 -0.141617 0.203841 0.069103 0.078656 -0.493575 -0.338456 -0.335692 -0.991006 -0.707641 -0.148680 0.096934 -1.269360 -0.211325 0.410072 -0.336679 0.094171 -0.797240 0.668501 0.342340 -0.591225 -0.244095 0.376959 -0.589878 -0.383058 0.089556 -0.539142 0.112813 -0.164560 -0.344899 0.042918 0.367672 0.476152 0.489864 -0.392032 0.146321 -0.348405 0.148548 -0.225121 0.305549 0.182142 0.052444 -0.084997 -0.466144 0.196767 -0.319318 0.052320 -0.349920 -0.011870 0.317243 0.166824 0.334534 0.121494 0.137729 -0.199093 0.003216 -0.112551 -0.159694 0.003232 -0.013762 0.364852 0.066891 -0.035830 -0.043110 -0.250959 -0.299824 0.338757 -0.538788 -0.351097 0.066400 -0.048981 0.139425 0.450217 0.213477 0.084265 -0.406338 -0.020200 -0.274970 0.135834 0.106775 0.033636 -0.355640 -0.110573 -0.563159 0.245480 0.441949 -0.126936 -0.233390 0.055225 0.689451 0.089611 -0.048144 -0.186164 -0.013874 0.062871 -0.229580 -0.051530 -0.649386 0.611574 0.243360 0.055325 -0.187234 0.813574 0.094102 -0.347718 0.287376 0.139191 0.079887 -0.372951 -0.356536 0.042110 -0.529258 -0.191275 -0.003817 0.543712 0.117881 -0.055980 -0.156072 0.123288 -0.155953 -0.135603 -0.509969 0.032807 -0.302166 -0.088676 -0.138364 -0.913233 0.017083 0.067823 
1240 0.040057 -0.431666 0.050174 -0.164710 -0.291929 -0.073067 0.075229 -1.331360 -0.005486 -0.306751 0.030941 -0.210387 0.269738 0.737570 0.245666 0.035931 -0.151899 -0.119098 0.407004 -0.565872 -0.307491 -0.192362 -0.720016 -0.070645 0.208734 -0.518393 0.424621 0.206239 0.041856 -0.330828 -0.029631 0.610088 0.029663 -0.194231 -0.284266 0.086106 0.120472 -0.335817 0.122409 0.094256 -0.145030 -0.197799 0.371286 -0.779962 0.032176 -0.060041 0.036837 -0.137689 0.119009 0.543537 0.498264 0.262077 0.346518 0.392847 0.157700 -0.383751 0.087762 0.254048 0.030429 0.092098 -0.150713 -0.459520 0.409681 0.233334 0.471371 -0.393317 -0.733620 0.854322 0.088787 0.231322 0.022574 -0.025466 0.045726 -0.394095 -0.178254 -0.693533 0.338539 0.467667 0.557572 0.164397 0.284976 -0.376212 -1.143250 0.590645 0.071199 -0.375892 -0.058351 -0.644303 0.854701 -0.054676 0.293483 -0.303724 -0.062140 -0.113034 -0.204638 0.078464 0.041351 0.617524 -0.106253 -0.207879 0.373064 0.253384 -0.278787 -0.054193 0.179000 -0.151623 -0.087880 0.066843 -0.129670 0.202179 -0.073447 -0.414763 0.672872 0.265699 0.237152 0.355752 -0.021049 -0.751636 0.017457 0.082018 -0.198414 0.238655 0.009783 -0.555270 0.233292 -0.101002 -0.202109 0.478618 
7153 0.020442 -0.076281 0.496808 -0.241201 0.499382 0.500601 -0.615770 -0.533063 -0.295973 0.051786 0.461308 -0.043362 0.609576 0.791312 -0.776072 0.537125 0.381604 -0.337070 0.547148 0.216257 0.205434 -0.170334 -0.495697 0.170914 -0.431261 -0.521212 0.474114 0.199395 0.657550 0.554664 -0.895775 -0.038843 0.496333 0.419002 0.354060 -0.006138 0.098182 -0.132390 -0.052366 -0.000615 0.075957 0.089735 -0.077170 0.110927 -0.047783 -0.184348 0.607039 0.229118 -0.227400 0.113320 0.156587 -0.255645 -0.239479 -0.079654 0.090360 -0.004619 -0.264969 -0.075094 0.483880 0.658166 -0.310737 -0.400133 -0.657332 0.152027 -0.033126 0.388818 -0.649970 -0.279885 -0.259913 0.453160 -0.402119 0.350060 0.852513 -0.025837 -0.374237 0.617135 -0.001797 0.160337 -0.121403 0.384404 -0.288494 -0.134974 -1.174717 0.749818 -0.394030 -0.147775 -0.371069 -0.327207 0.218823 0.137940 0.188338 -0.329946 0.124576 -0.328688 -0.043517 0.722320 -0.042289 -0.118056 0.951438 -0.241468 -0.127198 -0.608280 0.114783 -0.137933 -0.186387 0.217134 0.038366 -0.119859 0.156811 0.246549 0.037568 0.420600 0.276937 -0.026508 0.150822 -0.143198 -0.195906 0.552646 0.005635 0.299554 0.056925 -0.656267 0.579858 0.024512 -0.217715 0.804002 -0.061336 -0.714031 
541 0.018231 0.078815 0.445050 0.034995 -0.726541 -0.139339 0.025690 -1.115160 -0.108234 0.028074 0.519474 -0.671283 0.250522 0.271829 -0.099345 0.107337 -0.684304 0.128783 0.376466 -0.152818 -0.592574 0.201391 -0.592257 -0.325401 0.172878 -0.189337 0.047124 -0.084924 -0.032250 0.336008 0.194369 -0.019720 -0.111807 -0.227409 0.217988 -0.153378 -0.092854 -0.122530 0.288698 0.114558 0.441448 0.644644 0.005676 0.166071 -0.351122 -0.187841 0.490675 -0.191945 0.306718 -0.077392 -0.075159 0.285481 0.267090 0.418001 0.152163 -0.198616 0.044210 -0.253605 0.223392 -0.310898 0.203532 0.250258 0.433943 0.171841 -0.003899 0.566232 0.199497 0.005963 0.065134 -0.097607 -0.138203 -0.099171 0.469976 -0.085392 -0.267642 0.426597 0.382618 -0.204541 0.343112 0.283186 -0.092482 0.122138 -0.453401 -0.450671 -0.131359 -0.196525 0.314671 0.030113 1.045190 -0.015045 -0.012136 -0.024769 -0.176711 -0.502927 0.060680 0.193031 -0.283195 0.051612 0.523372 -0.214029 -0.069794 0.800134 0.217115 0.461354 0.164489 0.294365 -0.028929 -0.296748 -0.548400 0.009563 -0.398211 -0.047200 -0.576451 0.413179 0.404552 -0.241227 -0.501798 -0.214945 -0.357802 -0.475039 -0.541676 -0.059319 -0.155648 0.356946 0.557763 -0.353891 -0.544672 -0.601981 
1214 -0.207268 -0.212040 0.250905 -0.446596 0.358685 0.178571 0.404582 -1.384426 0.158382 -0.406800 0.408887 -0.376581 0.568676 0.356091 -0.168602 0.078607 -0.337679 0.079953 0.660002 -0.070233 -0.195419 -0.392006 -0.637348 -0.155064 -0.170261 0.044370 -0.332801 -0.487098 -0.485895 -0.277304 -0.627225 -0.028551 0.165416 -0.705102 -0.194299 0.020108 -0.054741 -0.854941 0.117640 0.124216 0.163966 0.079911 -0.102314 -0.355789 0.420412 0.279019 -0.354440 0.311172 -0.214105 -0.147668 -0.222511 0.252540 -0.111806 0.411649 0.081756 0.135175 0.139057 0.270812 0.154587 0.020523 0.284026 -0.096913 0.100691 0.803123 0.294939 -0.097297 0.004012 0.624441 -0.082240 0.667951 -0.037977 0.118851 0.138112 0.211508 0.459642 0.280027 0.406590 0.296430 0.520786 0.004863 -0.225462 -0.307314 -1.269538 0.246741 0.183064 -0.261793 0.164104 -0.294445 0.502942 0.037600 0.479087 -1.146020 0.669270 -0.074204 0.114496 0.312976 0.289251 0.255804 0.264129 -0.411161 0.219434 0.474152 0.042751 -0.292956 0.407930 0.025749 -0.094401 -0.039432 -0.112157 0.322587 0.495968 0.038462 -0.132188 -0.089302 -0.242961 0.389717 0.271438 -0.670522 -0.072397 -0.168930 0.140254 0.142571 -0.382579 -0.387774 -0.179754 -0.143537 -0.049328 0.230487 
1265 -0.258562 0.346728 0.058718 -0.554277 -0.084360 -0.820971 0.218202 -0.814780 -0.034790 -0.293521 0.418407 -0.515885 0.341514 0.462344 0.442972 0.526989 -0.654523 0.113633 0.847802 0.500050 0.065258 -0.504573 -0.053126 0.248420 0.425060 -0.310894 -0.578837 -0.236149 0.193685 0.170275 0.039235 0.084607 -0.279015 -0.554516 0.126819 0.130937 0.255987 -0.225910 0.519621 -0.144925 0.275371 0.003929 0.244708 -0.798737 0.425635 -0.504668 0.327625 -0.020738 0.074834 0.028076 0.524448 0.278649 0.035781 0.193777 -0.437474 0.539423 -0.113649 -0.114446 0.074762 0.451224 -0.065388 -0.135776 0.073142 -0.022007 0.419031 -0.151742 -0.573737 -0.146721 0.059804 -0.219096 -0.116119 -0.451447 -0.263848 -0.605086 -0.178612 -0.087938 -0.341063 0.584514 0.778566 0.002737 0.054511 0.383590 -1.056638 0.191116 0.089631 -0.102447 0.076955 0.379713 0.442904 -0.438872 0.543742 -0.567171 0.007872 -0.035719 -0.555635 -0.188257 -0.247306 0.150738 -0.230176 0.042985 0.113274 0.099124 0.324956 -0.831939 0.567068 0.485794 0.040738 0.130762 0.104425 0.056740 0.561503 -0.042920 0.196756 0.068222 0.077690 0.526095 0.531999 -0.236628 -0.221517 -0.150487 0.151478 0.058788 -0.107715 -0.460824 0.327175 -0.405073 -0.246598 0.620089 
4306 -0.037339 0.073685 0.101149 0.286418 0.775415 -0.200960 -0.452750 -0.465593 -0.529450 0.317387 -0.091452 -0.480701 -0.066902 0.171538 -0.519033 -0.177796 0.332870 -0.141698 0.724666 0.490245 -0.083492 0.224382 -0.299913 -0.817237 0.080499 -0.836908 -0.676648 -0.089357 0.697932 0.028566 -0.159068 -0.331841 -0.098978 0.109192 -0.116085 -0.154864 0.021217 -0.062965 0.011016 -0.456561 -0.230466 0.469622 0.561326 0.312747 0.446833 0.236116 0.466858 -0.400764 0.279917 0.441615 0.136877 -0.069260 0.078060 0.200535 0.316209 0.182914 -0.017145 -0.036250 -0.393296 -0.028635 -0.066924 0.218994 -0.154760 -0.169216 0.824941 0.590021 -0.326981 0.558826 -0.099057 -0.215944 -0.114264 0.141971 -0.144944 0.105711 -0.258858 -0.074612 0.136350 -0.040215 0.123853 -0.145643 0.310784 0.021874 -1.164422 -0.125665 0.694570 0.386304 0.022493 0.074806 0.523970 0.245182 -0.158916 -0.130079 0.521078 0.827220 0.784879 0.310876 0.226767 -0.303405 0.145329 1.297790 0.269997 -0.072087 -0.023689 -0.045869 0.512766 0.610211 -0.326985 0.136939 -0.542931 0.332535 -0.299222 0.464702 -0.221131 -0.135583 -0.161818 0.360643 -0.236751 -0.339707 -0.229214 0.101079 -0.638080 -0.129085 1.001827 -0.342950 -0.073325 -0.017542 -0.268922 -0.821368 
1291 -0.045752 -0.105548 -0.070816 -0.010126 -0.044255 -0.106541 0.130569 -1.452930 0.516640 -0.130222 0.180950 0.068688 -0.022157 0.477620 0.395412 -0.104709 0.191965 -0.151033 0.765594 0.159530 0.230412 0.362200 0.005737 -0.018888 0.375325 0.048420 0.450761 0.591312 0.244766 -0.146436 -0.067452 -0.251943 -0.249755 -0.292347 -0.235648 -0.280708 0.446652 0.005912 0.019356 -0.150819 -0.050815 -0.219207 -0.399353 -0.293552 0.409044 -0.644733 0.057982 -0.321004 0.383200 0.431692 -0.189988 0.028296 0.331738 0.300184 -0.008687 0.289189 -0.227908 0.116514 -0.594374 -0.016392 -0.470798 -0.198950 0.126519 0.194922 0.421166 0.247586 -0.607489 0.028770 0.188524 -0.134965 -0.107723 0.075841 0.243192 0.005941 -0.482376 -0.488967 -0.421632 0.230087 0.421856 -0.293994 -0.544762 -0.223781 -1.319913 -0.212857 -0.028255 -0.938390 0.242401 0.245196 0.772111 -0.346431 0.374604 -0.033193 0.093664 0.046006 -0.216714 0.221732 0.054642 0.512771 -0.325247 -0.370002 0.173750 0.617881 0.003139 -0.509917 0.281170 -0.395632 -0.083979 0.648862 0.106892 -0.041229 -0.073178 0.220999 0.454012 -0.233337 -0.250789 0.228073 0.572739 -0.108233 -0.397310 -0.281200 -0.373145 0.304896 -0.199032 -0.276826 -0.040530 0.086123 -0.175034 0.528793 
1097 -0.594292 -0.357066 0.148094 -0.556975 -0.241211 0.049533 -0.478491 -0.812244 -0.594123 -0.392840 -0.041134 -0.339256 -0.032420 0.102801 0.012131 -0.124729 -0.579613 0.338288 0.646731 -0.428797 -0.049843 0.331582 -0.270409 0.030345 -0.011583 -0.285157 0.110874 -0.831008 0.093782 0.206618 -0.337443 -0.524853 0.327741 -0.067207 0.419714 -0.321803 -0.484382 -0.437420 0.066125 -0.059464 -0.408845 0.232694 -0.360143 -0.272235 -0.214794 -0.777435 0.368777 0.209111 0.113874 0.192245 -0.037576 0.443825 0.059588 -0.000912 -0.216220 -0.142285 -0.494762 -0.529531 0.230157 0.085810 -0.152729 -0.377481 0.403236 0.118693 0.678448 0.050209 0.074227 -0.005869 0.052339 0.319804 0.450588 -0.105228 -0.224177 -0.203083 -0.126403 -0.577737 0.286851 0.474027 0.346560 -0.015170 -0.043507 0.114913 -1.135715 -0.103663 0.045793 -0.146072 0.087057 -0.142403 -0.207138 -0.222245 -0.117107 -0.343043 0.533322 -0.761487 0.239634 -0.085467 -0.571539 0.385696 0.527588 -0.386461 -0.126079 0.438925 -0.061335 -0.147219 0.221343 -0.417992 0.298941 0.274085 -0.255591 -0.793972 0.031800 -0.016145 -0.370273 0.179113 0.066524 0.175480 0.625829 -0.347625 0.294278 0.269993 -0.355097 0.027531 -0.024216 -0.027570 -0.139741 -0.171540 -0.223408 -0.181127 
1089 -0.228632 0.019392 0.785646 -0.325157 -0.375397 0.047186 -0.326628 -1.042579 -0.398207 -0.479927 -0.275032 -0.507703 0.364036 -0.460839 -0.336925 -0.212107 -0.553962 0.717287 0.892287 0.231318 -0.440311 -0.204010 -0.247967 0.138486 -0.417129 -0.096746 0.335729 -0.503708 -0.438423 0.035389 -0.148183 -0.217901 -0.016154 -0.356227 -0.032178 -0.189809 0.021326 0.313058 0.298408 -0.006390 0.047496 0.489056 0.033165 -0.399903 -0.323296 0.113385 0.448444 -0.140964 0.219171 0.170340 0.062361 0.338089 0.352386 0.001951 0.083606 -0.584586 -0.373000 -0.406876 0.067421 0.422120 -0.126269 -0.421253 -0.263866 0.481216 0.463437 0.831242 -0.476481 0.230629 0.504278 0.117397 -0.092641 0.074351 0.241288 -0.572664 -0.509140 -0.296968 0.069655 -0.098597 0.131460 -0.046086 -0.139049 -0.012842 -0.856654 -0.300234 -0.205445 0.062705 -0.239799 -1.000465 0.412821 -0.166284 0.123515 -0.237487 0.146697 -0.605087 0.585835 0.092381 0.223971 0.052636 -0.011911 -0.122327 -0.606501 0.502712 0.109440 -0.135405 0.409027 -0.502007 0.062858 0.452238 0.051343 -0.184352 0.661197 -0.132939 -0.382366 0.354512 0.298154 0.263863 0.490200 -0.800146 -0.354655 0.147589 0.174482 0.155890 -0.337669 -0.019715 0.552214 -0.181190 -0.375417 0.155884 
1704 -0.043926 -0.297475 -0.103192 -0.105361 0.212566 -0.041510 0.226032 -0.705227 0.449899 0.331164 0.531799 -0.649452 0.751153 0.245889 0.483751 0.284032 -0.400325 -0.020487 1.221634 -0.162968 -0.606364 -0.125306 0.092469 0.529184 0.387712 -0.308681 0.101694 -0.277658 0.188371 0.162198 0.000128 -0.037236 0.320108 -0.711923 0.004919 0.169448 -0.309955 -0.229066 0.585785 0.220630 -0.304748 -0.359746 -0.828677 -0.326673 -0.198813 -0.632938 0.299632 -0.320201 0.331295 -0.088518 0.109092 -0.109129 -0.053087 -0.511333 0.983864 -0.164462 -0.303544 0.037505 -0.574215 -0.065732 0.291324 -0.575902 0.084668 -0.194174 0.556627 -0.030836 -0.318152 -0.032202 0.759352 -0.439568 -0.287436 -0.366581 0.110542 0.552960 0.557820 -0.746030 0.293153 -0.002888 0.397988 -0.255928 0.084148 0.007659 -1.055120 -0.406913 0.115199 -0.447659 0.154545 -0.095673 0.224379 -0.349772 -0.136472 0.049137 0.005689 -0.070603 0.335480 -0.208162 0.257754 -0.066639 0.009211 0.245559 0.110245 -0.021387 -0.027881 -0.416479 0.098812 -0.036175 -0.277946 -0.347184 -0.233466 0.226596 -0.615692 0.176264 -0.103460 -0.322138 -0.215467 -0.015519 -0.289542 0.068477 -0.020123 -0.088686 -0.194167 0.003518 -0.386068 -0.249237 -0.132322 0.159322 0.389192 0.438260 
3578 0.005664 -0.055240 0.340455 -0.400674 0.798083 -0.451586 -0.684633 -0.711988 -0.376011 0.227870 -0.043436 0.015915 0.709948 0.265121 -0.546793 0.057460 0.166319 -0.143544 0.359456 -0.684045 0.284070 -0.066002 0.000134 0.285823 0.638755 0.078997 -0.080765 -0.402798 0.497130 0.587370 -0.384821 -0.164153 -0.386942 -0.576720 -0.110185 0.364312 0.450385 -0.060237 -0.325725 -0.508750 -0.241503 0.145050 0.235794 -0.086767 -0.243372 0.022380 0.204402 0.131840 0.174393 0.204300 0.204024 0.562846 -0.004729 0.022979 -0.561665 -0.520285 -0.263666 -0.083851 -0.254391 0.389063 -0.373921 0.061669 -0.470281 0.002184 0.188076 0.133328 0.336504 0.472161 0.074863 -0.390378 -0.338300 -0.444412 0.489941 -0.198265 -0.422981 -0.138312 -0.388169 -0.572351 -0.125422 0.114768 0.192417 -0.442249 -0.679779 -0.035638 0.147954 0.086012 -0.298795 -0.089900 0.437217 0.010625 0.446592 0.344772 0.259937 0.319903 -0.176919 0.683633 -0.033254 0.163003 0.418303 0.432679 -0.156203 1.051338 0.244981 -0.023365 0.035662 0.090564 0.049023 -0.491535 -0.501815 0.442829 0.108350 0.516785 -0.106475 0.287027 -0.433310 0.012709 -0.279784 -0.175042 -0.234685 0.580875 -0.370149 0.170301 0.522997 0.053122 -0.240908 0.793919 0.377498 -0.506056 
1036 -0.439806 0.346870 0.528182 -0.560435 0.198140 -0.215383 -0.455529 -1.359364 -0.440421 -0.089920 0.053753 -0.208889 -0.016683 -0.053954 -0.160494 -0.358932 -0.751028 0.328234 0.584929 -0.054486 0.085927 0.346667 -0.403062 0.384397 -0.645099 -0.242078 0.124767 -0.204978 -0.187119 0.158994 -0.259226 0.393545 0.302681 0.141142 -0.107206 -0.344845 0.224177 -0.059177 -0.146778 -0.179987 0.101843 0.488791 -0.430260 0.286425 0.067917 -0.136123 -0.220300 -0.553289 0.124301 0.143451 -0.217778 -0.195798 0.148010 -0.082230 0.585630 -0.249677 -0.158258 -0.329847 0.054792 -0.088140 -0.186359 -0.698313 -0.054271 0.222924 0.605746 -0.262390 -0.098279 -0.036569 -0.133780 0.000751 0.040709 0.205717 -0.128851 -0.012443 0.118872 -0.169068 0.003945 0.229813 -0.029517 -0.445945 -0.002701 0.015159 -1.353998 -0.334656 -0.133482 0.263646 -0.281894 -0.441100 0.241350 -0.358383 -0.121351 0.107665 0.070209 -0.766269 0.235520 -0.163004 -0.355651 0.251866 0.580994 -0.091228 -0.018951 1.153863 -0.454527 -0.166222 0.161732 -0.327204 -0.024958 0.368645 0.059723 -0.326336 -0.073197 -0.836456 0.032127 0.583534 0.230525 0.455295 0.576469 -0.461967 -0.636297 -0.181314 -0.562000 0.064726 -0.248262 0.224302 -0.202133 -0.218795 0.033032 0.614698 
2716 0.027335 0.324348 -0.444205 0.251886 -0.337851 0.471891 0.336972 -0.832251 -0.206543 0.518203 -0.390420 -0.192356 0.222270 -0.282616 -0.342159 -0.088426 -0.462933 0.191839 0.984244 -0.496874 0.122000 0.209352 -0.054856 0.310699 0.435961 0.281224 -0.101344 -0.285263 0.041160 0.155623 -0.082333 -0.118364 0.166109 0.240165 0.055980 -0.310268 0.029901 -0.093859 -0.006716 -0.171911 -0.320620 -0.275708 -0.341189 -0.354917 0.301085 -0.460506 0.474602 -0.331801 -0.142780 -0.195532 0.573339 -0.020081 -0.349998 -0.051274 -0.599361 -0.025989 0.323348 -0.551367 -1.044075 0.426681 -0.349460 -0.176028 -0.471449 -0.101381 -0.299415 -0.475744 -0.670933 0.805349 -0.258027 -0.068066 0.540866 0.026109 -0.011175 -0.309592 0.361161 0.141821 -0.525144 -0.406603 -0.385472 0.161943 -0.174075 0.326585 -1.382696 0.176136 -0.203199 -0.389559 -0.420867 -0.224382 0.502434 -0.141084 -0.654146 -0.190010 0.061907 0.201390 0.581611 0.895961 0.284228 -0.203300 -0.244569 -0.035065 0.235309 0.945323 -0.196223 -0.220683 0.432808 0.063825 0.098706 -0.175678 -0.301185 -0.129445 -0.078998 -0.009898 0.592276 -0.189822 -0.136496 -0.018636 -0.206964 0.703647 -0.120504 0.062649 0.204862 0.415201 0.625094 0.149766 0.057383 0.369415 0.163043 -0.072733 
780 -0.228458 -0.652856 0.444294 0.113101 0.029251 0.488608 -0.716416 -0.655963 -0.554950 0.269564 0.330387 -0.471444 -0.029237 -0.249056 -0.402817 0.656786 -0.534160 0.683013 0.808796 -0.012590 0.026514 0.411560 0.036031 0.128193 -0.397174 -0.287032 -0.308793 -0.445716 0.354937 0.141338 0.391026 -0.001609 -0.071584 -0.421464 0.205634 -0.116080 -0.167891 -0.172466 0.407895 0.251824 0.430772 0.355807 -0.181759 -0.019804 0.306423 -0.132788 -0.333503 -0.356645 -0.144257 -0.111570 0.097590 -0.035470 0.120692 -0.209992 0.142027 -0.342156 0.468888 -0.354617 -0.199002 0.034605 0.478588 -0.230793 -0.053958 0.120223 0.009519 0.247992 -0.517393 0.051035 -0.234526 0.122523 -0.150673 0.094035 0.085501 -0.046762 -0.369537 0.298744 -0.238610 -0.192406 0.023625 -0.205717 0.308674 -0.348380 -1.124560 0.006357 0.113730 -0.003634 0.055263 -0.191902 0.313812 0.066931 0.043670 -0.045370 0.232956 -1.066903 0.390205 -0.457078 -0.263759 0.570092 0.006792 -1.092796 0.194977 0.796440 -0.169964 0.103788 0.555883 -0.132445 0.581767 0.188807 -0.004975 -0.217740 0.714030 -0.430559 0.193092 0.474689 0.772541 -0.210136 -0.543289 -0.215779 0.071708 0.366534 -0.179172 0.612446 -0.325090 -0.151650 0.093980 0.071996 -0.164119 -0.107795 
912 -0.578932 -0.629922 -0.185372 -0.089605 0.036144 0.080754 0.080995 -1.151609 -0.370604 0.066761 0.571015 -0.934667 0.004890 -0.072065 -0.174454 0.132496 -0.522974 0.535238 0.649132 -0.181925 -0.064268 0.226626 -0.546081 0.024602 0.237446 0.036713 0.155276 -0.497678 -0.032015 -0.420321 0.575788 0.215778 0.234736 -0.104670 -0.305485 -0.296051 -0.156037 -0.210274 0.168686 -0.709762 0.215498 0.697687 -0.185708 0.053710 0.136295 -0.425848 0.248649 -0.517106 0.422204 -0.010599 -0.034184 0.064366 -0.071266 -0.336394 -0.343882 -0.398863 -0.012137 -0.055601 0.197720 -0.347672 -0.236861 0.158079 -0.207413 -0.196223 -0.241877 0.062934 -0.344439 -0.276886 0.194547 0.615108 0.450024 -0.153501 -0.175269 0.211622 0.431247 -0.033712 0.179187 0.242948 0.191966 -0.661158 0.013399 0.140285 -0.452774 -0.016804 0.158241 0.310033 -0.128300 -0.151427 0.486203 0.019049 -0.355548 0.203187 0.747990 -0.637822 -0.019077 -0.475935 0.504042 0.021119 -0.026645 -0.191621 -0.145036 0.786747 -0.166580 -0.449779 0.924540 0.031433 -0.347707 0.460395 -0.340218 0.115940 -0.159181 -0.079305 -0.279993 -0.259295 0.512208 -0.116187 0.536691 0.340476 -0.055187 0.268532 -0.583095 -0.072463 -0.477886 0.167442 0.120587 -0.454484 -0.242800 -0.087592 
1213 -0.585073 -0.638376 0.288984 -0.263332 -0.188637 -0.091918 -0.166601 -0.830563 0.296456 -0.307721 -0.434338 -0.773417 0.689466 0.424892 0.230968 0.124761 -0.241148 0.007777 0.531439 0.434728 -0.405589 -0.424239 -0.339075 -0.059250 -0.447588 0.314071 0.253620 -0.000622 -0.483660 -0.062861 -0.517938 -0.033151 -0.297802 -0.923028 -0.153591 -0.261628 -0.384616 -0.281478 0.106677 0.042608 0.166149 0.062633 -0.446389 -0.378484 -0.021843 -0.279913 0.362153 -0.163664 0.240983 0.077450 -0.428954 -0.133071 -0.330586 0.223981 -0.064298 0.101371 -0.328430 -0.159631 0.180399 0.228004 0.590661 0.238862 0.105092 0.319160 1.353395 -0.433545 -0.383948 0.519527 0.025388 0.790871 0.189668 -0.420215 -0.070004 -0.095829 -0.329557 -0.336078 -0.149999 0.555371 0.192324 -0.528100 -0.041729 -0.243064 -0.924565 0.064506 -0.856668 -0.033327 -0.307652 -0.176707 0.614667 0.539647 0.120758 0.004976 -0.026302 -0.012299 -0.048570 0.375511 0.111892 0.554417 0.308062 0.186666 0.109651 0.551819 -0.025184 -0.584008 0.047239 -0.632532 0.257522 -0.108048 -0.274238 -0.334429 0.307502 -0.233772 0.153671 0.208898 -0.130923 0.326373 0.017130 -0.087596 -0.101661 -0.027488 -0.370621 -0.389481 0.073961 0.113816 -0.193310 0.004743 0.225979 -0.432577 
1617 -0.038352 -0.153109 -0.433773 -0.342970 0.111313 0.066514 0.208996 -0.430949 0.156258 -0.479401 0.223804 -0.177531 0.372012 0.481830 -0.105548 0.614127 -0.189185 0.052098 0.544655 0.031248 -0.206770 -0.220321 -0.101294 -0.131692 0.159665 -0.463289 0.199133 0.006361 0.159210 0.527825 -0.320215 -0.041606 0.402405 -0.135925 -0.244326 0.017328 0.175162 -0.397143 0.192078 0.093236 0.471536 0.142595 -0.309208 -0.231744 -0.080318 -0.359466 0.470578 -0.539505 -0.133815 0.118312 0.199557 0.213340 0.494585 -0.309973 0.808185 0.027076 -0.245287 -0.059778 -0.342238 -0.064104 0.107519 0.454417 -0.327942 0.508790 0.606561 0.018003 -0.147561 0.085869 0.670940 0.256786 0.067996 -0.855808 0.099311 0.072229 0.252826 -0.118741 0.481385 0.254164 0.271543 -0.438705 -0.714546 -0.204265 -1.485846 -0.412060 0.015355 -0.312754 -0.188259 0.387149 0.655358 -0.338882 -0.544064 -0.338636 0.130490 -0.262125 0.168989 -0.270790 0.120842 0.864554 0.035749 0.289600 -0.449024 0.408480 0.531314 -0.377856 -0.043742 -0.004612 0.203686 -0.261634 0.674219 -0.233945 0.105807 0.052250 -0.559532 0.136642 -0.228891 -0.534297 0.065255 -0.272910 -0.233879 -0.046988 0.598867 0.115881 -0.094872 -0.025698 -0.111163 -0.118340 0.612506 0.552960 
2329 -0.124758 0.261017 -0.702640 0.183728 -0.155233 -0.323561 -0.068506 -0.598715 -0.180721 -0.317411 0.642870 -0.464820 0.394098 0.124419 -0.468570 0.253578 -0.400878 -0.137787 1.054219 -0.245007 -0.016233 -0.221129 0.725991 0.097370 0.399199 0.174028 0.711166 -0.092398 0.521111 0.542876 0.333030 -0.098601 -0.074439 0.429788 -0.242909 -0.004658 0.481740 -0.434050 0.118592 0.214686 -0.003907 0.139086 -0.114365 -0.476652 0.536683 0.115546 0.121510 -0.065897 0.636170 0.075648 -0.265696 -0.398794 -0.334209 -0.512303 0.081117 0.397626 -0.213822 -0.084551 0.077012 0.147838 0.475251 -0.010387 -0.402824 0.069469 0.944386 -0.729741 -0.583055 0.916824 -0.079382 0.059793 0.176209 0.039020 0.343812 -0.412769 0.110713 -0.636566 0.563931 -0.024663 -0.167876 0.054117 -0.314849 0.019311 -0.840977 0.197473 -0.186875 -0.259849 0.222746 0.130704 0.146182 -0.431273 0.275453 0.001251 0.064870 0.183520 0.477971 0.654940 0.712526 0.021049 -0.353291 0.492850 0.065077 0.444326 -0.256837 0.170305 -0.733491 -0.056034 0.056204 -0.650602 -0.520953 0.536155 0.282532 0.201239 -0.121802 0.326766 0.363161 0.654792 -0.109069 0.099881 -0.619130 -0.242523 0.023544 0.304616 -0.280385 -0.084035 0.108551 -0.062826 -0.294202 0.010608 
4973 -0.482873 -0.335825 -0.053484 0.226521 0.386064 -0.306064 -0.079750 -0.718824 -0.481968 -0.106767 0.110081 -0.006849 0.726022 0.575559 -0.557388 0.188568 -0.656810 0.462282 -0.047143 0.304549 -0.271756 0.339869 0.019527 -0.350108 0.413718 -0.624952 0.285732 0.062709 0.177995 0.013863 -0.856245 -0.241620 0.197924 0.060314 -0.123588 -0.101702 0.253568 0.255204 -0.291450 0.643074 -0.072843 -0.812384 -0.015548 0.420365 0.251040 -0.785916 0.736517 -0.249756 -0.111974 -0.031295 0.001895 -0.418686 -0.847489 0.136581 -0.447188 -0.094294 0.500354 0.618318 0.005977 0.102329 0.113124 0.427715 -0.567109 -0.631028 -0.100049 -0.414710 0.538953 -0.116142 -0.291027 0.453781 -0.481615 -0.261250 0.588788 -0.001923 -0.000126 0.234879 0.679670 0.216473 -0.189025 0.717041 -0.056239 0.351869 -0.844019 -0.020001 0.582308 -0.334837 -0.516317 -0.078499 -0.015033 -0.424911 0.012991 -0.291684 0.633229 0.323199 0.133627 0.453357 0.445402 0.055590 0.119988 -0.075629 0.640923 0.586162 0.188370 -0.136645 -0.053697 0.206880 0.142250 0.507289 -0.090285 0.468222 -0.669476 0.250569 0.454438 0.366344 -0.799416 0.120485 -0.154592 -0.484533 -0.115328 0.743629 -0.204848 0.150751 0.206545 -0.775318 -0.372395 0.023367 -0.147390 -0.510299 
380 -0.247966 0.195055 -0.182064 0.187534 -0.377183 0.324476 -0.086410 -0.410221 -0.313114 -0.201535 0.565929 -0.579039 0.072143 0.523844 -0.671774 -0.657505 -0.521018 -0.012106 0.348461 0.031455 -0.099100 0.382957 0.012291 -0.031583 -0.198079 0.135126 0.102627 -0.107722 0.028419 0.453573 0.259336 -0.318907 0.028547 -0.160740 0.197987 0.433495 0.050057 -0.529922 -0.085731 0.012824 0.224388 0.238810 0.160889 0.214505 0.032099 -0.116844 0.308071 0.046931 -0.222892 0.277815 0.446528 -0.590739 0.329760 0.235962 -0.345009 -0.105922 -0.126732 -0.197567 -0.110287 0.888939 0.146817 -0.394262 0.582827 0.656671 0.054666 0.405730 -0.048390 -0.459801 0.394286 0.463708 0.086088 -0.155496 -0.175645 0.299063 -0.157115 0.102360 0.174328 -0.453819 -0.136175 0.063288 -0.383860 -0.331617 -0.635397 0.125297 0.356485 0.004523 0.340106 -0.166697 0.717779 0.682686 0.307245 0.150186 -0.139185 -0.202040 0.004608 0.517315 -0.307341 0.261756 0.064663 -0.230546 -0.532750 0.907557 -0.203076 -0.228782 0.195645 -0.204028 -0.561232 0.354383 -0.474369 -0.007494 -0.871561 0.100628 -0.039493 0.315178 0.537992 0.056504 0.107683 -0.324278 0.057688 -0.346095 -0.756168 0.082895 -0.408541 0.225119 -0.167027 -0.140212 0.185374 -0.226002 
595 -0.314650 -0.587741 0.252391 0.028589 0.111187 0.275077 -0.619034 -0.931901 0.159434 -0.194380 0.753269 -0.904013 -0.180329 0.245169 -0.636402 0.447507 -0.904020 0.143482 0.321048 -0.345216 -0.483583 0.276463 -0.248093 -0.316282 0.176311 -0.564613 0.033123 -0.008149 -0.008574 0.161561 0.291764 -0.088743 0.442006 -0.561634 0.598554 -0.305599 -0.254199 0.407181 -0.114611 -0.429783 0.196080 0.355256 -0.312930 -0.218952 -0.226861 0.114761 0.021273 -0.149708 0.235450 -0.571677 0.311494 0.152061 0.398106 -0.075596 -0.149689 0.022632 0.551640 0.364210 0.140182 0.278591 -0.183137 -0.229028 0.049659 -0.186675 -0.181821 0.312964 -0.668063 -0.347389 0.045423 0.339328 -0.415671 0.005180 0.107524 0.166782 -0.551205 -0.265584 0.142238 0.043100 -0.317757 0.142782 -0.222895 -0.127518 -0.510086 -0.338997 -0.429420 0.082046 -0.256239 0.277759 0.428624 0.587316 0.073867 -0.414586 0.017446 -0.759321 0.196855 -0.094577 -0.366425 -0.031448 0.106527 -0.129415 0.227298 0.803252 0.054804 -0.064952 0.117369 0.525521 0.435815 0.311355 -0.519276 -0.173847 -0.516227 -0.336444 -0.238182 0.929267 0.732565 -0.188236 0.124900 -0.029803 -0.399698 -0.613898 -0.114162 0.173819 -0.170636 -0.064448 -0.281490 -0.340742 0.167563 -0.642963 
778 -0.603908 -0.261898 0.272423 -0.253116 -0.274403 0.025564 -0.213792 -1.004218 -0.437697 -0.025631 1.053935 -0.354061 0.260601 0.264593 -0.373472 -0.007288 -0.474205 0.755382 0.384648 -0.043112 -0.518234 -0.015507 -0.436345 0.323483 0.005704 0.037463 0.290569 -0.374096 0.163541 0.011737 0.388525 0.318248 0.408188 -0.164458 0.127876 0.167537 0.138780 -0.194065 0.586334 0.140899 0.745567 0.748290 0.374067 0.038197 -0.155700 -0.113116 -0.125902 -0.063023 0.306573 -0.215172 -0.050526 0.352851 0.492304 -0.160174 -0.068551 -0.107239 0.394880 -0.334620 -0.420575 0.458962 0.014016 -0.073411 -0.384872 -0.023212 0.710707 0.356201 -0.553639 0.156137 0.522746 -0.060473 -0.168672 0.206229 -0.038364 -0.035319 -0.115166 0.328415 0.189563 -0.132869 -0.135585 -0.049635 0.070210 0.080960 -0.628432 -0.283861 0.092993 -0.101358 0.156788 0.175965 0.214151 0.205221 -0.389057 0.282531 0.398369 -0.358745 -0.013932 -0.095731 -0.022231 -0.062737 -0.589734 -0.377799 -0.354105 0.960621 0.043839 -0.028322 0.417069 -0.145315 0.218968 -0.054818 -0.089214 -0.287194 0.269679 -0.082456 -0.668633 0.895716 0.395491 0.549042 0.009445 -0.262175 -0.240323 0.267632 0.073390 -0.483836 -0.229942 0.013046 0.093957 -0.194327 0.127898 -0.110061 
2997 -0.053373 0.046740 -0.980391 0.098672 0.076548 -0.474172 -0.364868 -0.790465 -0.505772 -0.590339 0.148676 -0.122099 0.848166 0.326038 -0.563386 0.226413 0.014262 0.444322 0.226977 0.169210 0.111902 0.215356 -0.302305 0.317063 -0.328907 0.385690 0.250278 -0.646228 0.158392 0.592372 -0.414748 -0.465782 -0.207699 -0.300434 0.190065 0.253958 0.015102 -0.015424 -0.081086 -0.528368 -0.366756 0.186703 0.058088 -0.109183 0.061533 -0.722176 0.867823 -0.094488 0.122762 -0.333100 -0.077250 -0.038973 0.318295 -0.192134 -0.033412 -0.655471 0.014457 0.165768 -0.147310 0.429625 0.485094 -0.226326 0.246512 -0.153921 0.075204 -0.216662 -0.674075 0.446346 0.454415 0.528710 -0.089587 -0.082643 -0.092495 -0.842804 0.117586 -0.001580 -0.024211 0.036732 -0.606405 -0.175137 0.077663 -0.346737 -0.786993 -0.528446 0.333249 0.162137 0.088894 0.082445 0.563656 0.199156 -0.221456 -0.167139 -0.116274 -0.141973 -0.020853 0.223561 0.096801 -0.547708 -0.247800 1.016178 0.217254 0.568945 0.257579 -0.101204 0.188712 -0.002093 -0.241462 -0.124245 -0.611662 0.899983 0.426634 0.528370 0.005586 0.015188 -0.586293 -0.071051 -0.086473 0.271453 0.212828 -0.122041 0.779997 0.256808 0.522912 0.210619 0.366501 0.372886 -0.248710 -0.134938 
111 0.166610 -0.329699 0.016902 0.707360 0.010607 -0.187539 -0.106879 -0.998767 0.271251 -0.010724 0.355557 -0.752860 0.491833 0.347324 -0.343043 -0.073717 -0.689449 0.609649 0.566105 0.267872 0.187046 0.208148 -0.749344 -0.145216 -0.665778 -0.140931 0.006390 -0.926018 0.122773 0.414725 -0.379913 -0.019140 -0.417525 -0.300534 0.242324 -0.476892 0.221033 0.244672 0.901264 -0.059770 0.431168 -0.462360 0.040010 -0.144719 0.104735 -0.227229 0.279809 -0.325301 0.007943 0.042474 -0.241876 0.106441 0.215494 0.251067 -0.281694 -0.088552 0.283312 -0.084328 0.090193 -0.069651 0.570823 -0.010858 -0.627770 -0.083700 -0.265718 0.216406 -0.469234 -0.086136 0.005012 0.021294 -0.073646 -0.418350 -0.163259 0.020036 0.048885 0.283942 -0.035942 -0.120999 -0.119780 0.190330 0.521207 -0.469054 -0.256600 -0.201597 0.157305 -0.142808 0.875040 -0.030708 0.624736 0.351862 -0.469503 0.302695 0.001881 0.023456 0.103345 0.095704 0.267648 0.293164 0.022610 0.214565 -0.314620 0.563114 -0.017850 -0.334409 0.145067 -0.237959 -0.430464 0.127791 0.220650 -0.331994 -0.880525 0.050877 0.225702 0.165895 0.213931 0.018543 0.059399 -0.473520 -0.186092 -0.306698 -0.466595 -0.170336 -0.123947 0.422553 -0.019806 -0.493331 -0.193887 0.065619 
377 -0.116149 -0.103738 -0.580360 -0.048382 -0.209484 0.064468 0.204622 -0.869290 -0.186135 -0.284626 -0.182567 -0.859419 0.601499 -0.168386 -0.074548 -0.296711 -0.444562 0.016647 0.289016 -0.369023 -0.044037 -0.163607 -0.295243 -0.047486 0.024296 -0.026088 -0.051277 0.139976 -0.375375 0.279547 0.318290 -0.025549 -0.332615 0.054367 0.861647 0.170921 0.136052 -0.058434 0.232177 0.059601 0.125258 0.055423 0.222574 -0.035379 0.109257 0.180280 -0.237949 0.196784 0.246694 0.673662 0.682243 -0.368874 0.023184 0.140559 -0.165243 -0.519035 0.238270 0.064571 0.496115 0.497759 0.210431 -0.414674 0.487680 0.170162 -0.083538 0.230212 -0.375223 -0.356050 0.129328 0.084949 -0.180131 -0.347573 0.421032 0.416900 -0.129954 0.468578 0.418487 0.338254 0.465325 0.326380 -0.451070 -0.300634 -0.731468 0.295674 0.281562 -0.172158 0.093056 0.000832 0.949261 0.674751 -0.377226 -0.414597 -0.072876 0.012395 0.638293 0.350535 -0.307395 0.023148 0.131415 -0.251715 0.000859 0.875723 -0.352196 -0.119016 -0.050525 0.157146 0.060960 0.309155 -0.500116 -0.112830 -0.701614 0.132813 0.079428 0.417765 0.771536 -0.438452 -0.366072 0.231007 -0.426523 -0.564652 -0.677491 -0.145213 -0.758470 0.288838 -0.064473 -0.126946 0.402709 0.001267 
750 -0.308872 0.114331 -0.508483 -0.193798 -0.190820 0.306382 -0.305323 -0.999054 -0.290196 0.106960 0.523847 -0.724376 0.030518 0.158597 -0.483024 0.403985 -0.398038 0.319461 0.653458 0.614986 -0.886176 -0.367032 -0.652439 0.190955 -0.248255 0.243382 0.041940 -0.128258 -0.241597 -0.143789 -0.053730 0.457537 0.348294 -0.733370 0.520778 0.069320 -0.010494 -0.415305 0.263867 -0.026896 0.309685 0.307794 0.006294 0.218184 -0.435622 -0.017825 0.077238 -0.632231 0.440815 -0.346005 0.441873 0.270806 0.359909 -0.650742 -0.093230 -0.431480 0.193686 -0.047115 -0.388310 -0.181916 -0.199197 -0.119017 0.466820 0.099057 0.330536 0.260899 -0.602444 -0.132355 0.031845 0.487901 -0.228920 0.040804 0.412201 -0.145336 -0.304639 0.125880 0.447307 -0.003483 0.262424 0.026649 0.472602 -0.245706 -0.654797 -0.390261 -0.165575 0.046210 -0.465362 -0.274629 0.325161 0.746864 -0.442175 -0.338011 0.529130 0.095347 -0.172560 -0.337786 -0.403878 0.235343 0.255905 -0.265890 -0.017511 0.607966 -0.069932 -0.055791 0.498622 0.084589 0.270952 -0.167295 0.103899 -0.529896 0.343585 -0.107741 -0.489726 0.280709 0.616340 0.246493 0.081111 -0.230051 -0.552915 0.012351 -0.334905 -0.230975 -0.457071 -0.090127 0.604003 0.047771 -0.592520 0.303496 
1200 -0.066168 0.274663 0.320756 -0.048875 -0.036320 0.208990 0.389184 -1.184397 -0.054884 -0.106622 -0.132493 -0.046460 0.100992 0.899682 -0.028799 0.209176 -0.891833 0.246236 0.783795 0.661490 -0.138593 0.096548 -0.404252 -0.057066 -0.337365 -0.181227 -0.162893 -0.816766 -0.306497 0.110016 -0.774239 -0.038978 -0.001147 -0.107969 0.142344 0.036978 0.025457 -0.315822 0.389019 0.396809 -0.365520 0.412846 -0.107981 0.260118 0.628132 0.180890 0.121524 0.527084 0.046663 0.346485 -0.447669 0.199109 -0.268601 -0.433311 0.523804 0.056303 -0.280487 0.370375 0.110784 0.508636 0.349121 0.004909 0.218384 0.605346 0.348589 -0.282819 -0.542054 0.370192 -0.033121 0.115242 -0.224839 -0.112548 0.189265 -0.274825 -0.302090 0.248176 -0.086758 0.051002 0.391773 -0.456751 -0.263665 -0.462640 -1.028892 0.106735 -0.297748 -0.299727 -0.158148 -0.667980 0.673216 0.244545 0.151691 -0.594252 0.594719 -0.570128 0.083186 0.447091 0.164709 0.299857 0.323216 -0.274240 0.121555 0.506982 0.062375 0.081343 0.905333 -0.202120 -0.027981 -0.053768 -0.179643 -0.008383 0.397506 -0.109059 0.634143 -0.054440 0.388126 0.495783 -0.209405 -0.696402 -0.056716 0.558906 -0.463263 -0.260778 -0.646209 0.194103 0.119061 -0.176719 0.015449 -0.224637 
924 -0.186261 -0.158860 -0.136252 0.399517 0.136656 0.650819 -0.543498 -1.356412 -0.457239 -0.239806 0.290404 -0.424692 -0.071244 -0.065124 -0.195014 0.520106 -0.469430 0.417039 0.598299 0.299394 0.002562 -0.149725 -0.793251 0.322890 -0.869964 0.025093 -0.140164 -0.266813 -0.494856 0.184104 0.240823 0.185472 0.311661 0.063562 0.101422 -0.432677 -0.419784 -0.429353 -0.337620 0.281487 0.171572 0.843494 -0.253078 -0.545461 0.011677 -0.068396 -0.134682 -0.303786 0.056383 -0.033012 -0.067069 0.276420 0.213853 -0.286061 -0.303226 -0.085260 -0.125130 -0.072787 0.256888 0.300596 0.139186 0.044535 0.088936 0.325843 0.458569 -0.263016 -0.094613 0.210408 -0.025715 0.061454 -0.038482 -0.283023 -0.411793 0.040909 -0.220726 -0.586561 -0.183676 -0.392337 0.315234 0.168951 -0.627828 0.124713 -0.856050 -0.232713 0.255749 -0.023360 -0.393050 -0.357623 0.581328 0.440959 -0.711739 -0.120683 0.120058 -0.499774 0.192544 -0.004969 0.427586 0.115409 0.055586 -0.715288 -0.093541 0.734790 -0.568814 -0.461768 1.155223 -0.254641 0.012884 0.141012 0.067521 0.152316 -0.031973 -0.378966 0.025433 0.177224 -0.054487 0.174062 -0.169270 -0.094816 0.507707 0.121473 0.159460 -0.215860 0.117501 -0.458501 0.458465 -0.538895 -0.365859 -0.418255 
34 0.296332 -0.155645 0.147298 0.481831 -0.201675 -0.477677 0.246800 -1.001188 -0.175447 -0.549087 -0.226043 0.117843 0.448547 0.251210 -0.812748 0.032460 -0.447112 0.006565 0.094076 -0.125450 -0.486566 -0.008183 -0.450149 -0.172763 -0.092070 -0.456605 0.012491 -0.632341 0.176046 0.605311 -0.266623 0.238447 0.192319 0.351909 0.448272 -0.386636 -0.326586 -0.099176 0.761657 -0.022852 0.774539 -0.136024 0.259034 -0.514682 -0.013549 -0.234322 -0.096980 0.646193 0.038435 0.220550 0.255555 -0.193854 -0.069002 0.405458 -0.526719 -0.008682 0.634722 -0.357051 -0.666650 0.698751 0.479010 0.268880 -0.057844 -0.044850 -0.140838 0.017122 -0.247082 0.014147 0.246381 -0.229977 -0.189642 0.368560 -0.056589 0.324161 0.437907 0.084822 -0.125787 0.254113 0.301402 0.111125 0.431006 -0.186052 -0.499710 0.279788 0.094533 0.380894 0.231876 0.053684 0.869313 0.306502 -0.547924 -0.101434 -0.394953 0.152359 0.261942 -0.002098 0.280807 -0.049883 0.256717 0.180716 -0.005905 0.788203 -0.119381 0.411862 0.726851 -0.131059 -0.449813 0.065932 0.020090 0.027644 -0.707318 -0.612370 0.169896 -0.563310 0.583943 -0.392121 -0.156798 -0.275949 -0.041489 -0.235414 -0.094300 -0.042168 0.295478 0.105815 0.141150 -0.457423 -0.153198 0.254712 
58559 -0.139757 -0.237806 0.833835 -0.300145 0.852688 0.218279 -0.470100 -0.813940 0.184660 -0.398211 -0.411611 -0.105437 0.785602 0.251780 0.069437 0.283571 0.016212 0.151519 0.842599 -0.300050 -0.795423 -0.432503 -0.496575 0.041097 -0.168815 -0.205285 0.060532 0.158762 0.133478 -0.472111 -0.537132 0.067766 0.236704 0.344265 0.176043 0.217743 0.340286 -0.015360 0.335058 0.650321 -0.209514 0.366375 0.555169 0.014545 -0.905288 -0.140083 0.937973 -0.160757 0.147222 -1.067766 0.376772 0.329751 -0.013092 0.159240 -0.246517 -0.031929 0.607213 -0.097201 -0.027779 0.232080 0.394899 0.044196 -0.530241 0.287114 -0.217703 -0.276083 -0.641109 0.380425 0.107406 0.239643 0.219279 0.138655 -0.444337 -0.003474 -0.575474 0.083827 -0.477022 0.029317 -0.101814 0.527192 -0.586009 -0.309024 -1.493035 0.919495 0.604370 -0.027844 -0.717034 0.151008 0.549444 0.488326 -0.023955 -0.149962 0.275510 0.355830 0.276687 0.004121 0.145337 0.246996 -0.106037 -0.015888 -0.128820 -0.262656 -0.092197 0.612544 -0.541666 -0.017703 -0.201802 -0.594111 0.437740 0.630867 -0.258850 -0.228987 0.723675 0.236574 -0.218348 -0.246487 -0.701755 0.342193 -0.005379 1.133884 -0.927233 -0.561071 0.131476 -0.067594 0.577097 0.470926 -0.457531 -0.023553 
1206 0.078990 -0.570624 0.537095 -0.694227 -0.171147 -0.097116 -0.049001 -1.109070 -0.371649 -0.481226 0.026107 -0.381363 0.907604 0.423651 -0.181932 0.554213 -0.476890 0.119467 0.928587 0.607747 -0.188966 -0.857528 -0.661407 0.159854 -0.428598 -0.254017 -0.317998 -0.167283 -0.196396 0.232624 -0.201646 -0.639717 -0.114990 -0.254718 -0.063322 0.187252 -0.053627 -0.092292 0.321315 0.174940 -0.320974 -0.160465 -0.198264 -0.233097 -0.035149 0.552565 0.068692 -0.030430 0.183571 1.075292 -0.259887 0.555174 0.149824 0.075839 0.256982 0.009299 -0.218486 0.471599 0.289051 0.456511 0.353828 -0.372157 -0.095857 0.562844 0.311355 -0.227291 -0.685784 0.088159 0.405606 0.210389 -0.579688 -0.239880 0.016465 -0.449029 -0.032853 -0.201951 0.204274 0.182224 0.407970 -0.117260 -0.276938 -0.062102 -0.964416 -0.659839 0.371703 -0.209060 -0.223934 -0.270837 0.760337 0.158560 0.291400 -0.258539 -0.235491 0.194864 -0.066503 0.357528 0.241147 0.087168 0.076193 -0.246697 0.063919 0.807356 -0.463417 0.015736 0.008343 -0.192745 0.259492 -0.809556 -0.318614 -0.482182 0.518257 -0.702820 0.179321 -0.210396 -0.171520 1.109167 0.700663 -0.330041 -0.034137 -0.208222 -0.230379 0.026681 -0.314661 -0.075685 -0.050476 -0.235019 -0.551093 0.036562 
223 -0.037832 0.272732 0.064491 0.467760 -0.270656 -0.182530 -0.152176 -0.929396 -0.083595 0.162449 0.158642 -0.084096 0.543026 0.114999 -0.735608 -0.238817 -0.448233 -0.087915 0.591236 0.035752 0.249794 -0.133801 -0.635523 -0.215872 -0.402153 0.049833 0.256494 -0.072520 -0.214716 0.823912 0.037445 0.425226 0.124353 -0.579180 0.134750 -0.219485 -0.069724 0.069196 0.058159 0.064846 0.230747 -0.178252 0.115379 -0.036069 -0.027395 0.028214 0.110043 0.122578 -0.227119 0.144597 0.053352 -0.659536 -0.353029 0.212062 -0.881220 -0.421012 -0.174106 -0.472449 -0.176208 0.097843 0.740632 0.160083 0.178071 -0.424956 0.052714 -0.397522 0.105629 -0.451332 0.192567 -0.235646 -0.271183 0.408299 0.196440 -0.012705 0.046224 0.678851 0.498820 -0.180562 0.306608 0.032193 -0.007830 -0.059895 -0.770653 -0.196655 0.053961 0.245233 0.442576 0.492680 0.501173 0.486346 0.293762 -0.255116 -0.140309 -0.502154 0.301021 0.110529 0.341392 0.615195 0.266989 -0.089280 -0.581725 0.348094 0.348976 -0.408062 0.418861 0.084565 -0.266100 -0.136671 0.368011 -0.750604 -0.295447 -0.036912 -0.311382 -0.014212 0.389731 -0.410936 0.077334 -0.388182 -0.671513 -0.207883 -0.682036 -0.421216 -0.181724 -0.163633 -0.056355 -0.206200 -0.106850 -0.045744 
293 0.131710 -0.322141 -0.196170 0.376664 -0.175809 0.025308 -0.083229 -0.775537 -0.222030 -0.259170 0.602944 -0.415952 0.446356 -0.088892 -0.005329 0.086791 -0.809195 0.179674 -0.037370 -0.093432 -0.318412 0.331735 -0.244490 -0.247221 -0.144002 0.151270 0.295760 0.092163 -0.700677 0.308030 0.043166 -0.035006 0.088884 -0.145284 0.125192 0.502064 0.423421 0.124860 0.385742 -0.102822 -0.007871 -0.324302 -0.244074 0.087250 -0.069073 0.168163 0.089428 -0.252235 -0.359376 -0.002726 0.785595 -0.132866 0.091796 0.275057 -0.271532 -0.427388 -0.110847 -0.135453 0.298098 0.487840 0.379059 -0.392224 0.042964 -0.528972 0.160575 0.582348 -0.124300 -0.021718 0.528913 -0.383723 -0.238349 0.055177 0.121152 0.437890 -0.069582 -0.174138 0.828214 -0.229422 0.424154 0.461136 0.279593 0.263634 -0.842229 0.087590 -0.031405 -0.191436 0.487774 0.175987 0.734768 -0.059324 0.093480 -0.571536 -0.250019 0.014332 0.118612 0.448817 0.395562 0.077744 -0.283298 -0.167645 -0.123399 0.745202 -0.052610 0.034733 0.820709 -0.076158 0.324437 0.174919 0.333335 -0.290103 -0.961084 -0.391594 -0.059108 0.002979 -0.007373 -0.195932 0.461024 -0.185672 -0.286691 -0.002843 -0.722694 -0.407655 -0.068909 0.373061 -0.276079 -0.194044 -0.176821 -0.156870 
592 -0.075915 -0.250665 -0.080128 -0.168007 -0.631027 0.173721 -0.322653 -1.008257 -0.080493 0.497933 0.514975 -0.831706 0.168341 -0.159252 -0.385498 0.384222 -0.772247 0.826871 0.442252 -0.174700 -0.358805 0.535940 -0.874749 0.026243 0.222422 -0.140781 0.441612 -0.380011 -0.206369 -0.231763 -0.135872 -0.043565 0.167918 0.130088 0.152767 -0.064810 -0.505579 -0.426722 0.119930 -0.325327 0.200469 0.309317 -0.259415 -0.293420 -0.218717 0.231999 -0.159443 -0.011776 0.392058 -0.089335 0.235693 -0.004536 0.241365 0.039467 0.018539 -0.370309 0.274071 -0.041371 -0.106818 0.266631 -0.546022 0.037165 0.314956 -0.036316 0.007000 0.177572 -0.059280 -0.639362 0.234711 0.319049 -0.506770 -0.169790 -0.052153 -0.471120 -0.452394 0.635900 0.198609 -0.159905 0.523627 0.477835 -0.384490 -0.336414 -0.963042 0.138828 -0.210780 0.145100 0.239665 -0.122484 0.419617 0.233702 0.050411 -0.416300 0.412158 -0.353887 0.156503 -0.038639 -0.227629 0.340285 0.560103 -0.270586 0.336463 0.681744 0.188013 0.050177 0.219888 -0.076337 0.241102 0.022261 0.045086 0.016466 -0.650231 -0.106980 -0.644467 0.602167 0.027203 0.124475 -0.197399 -0.411555 -0.043457 -0.254029 -0.491353 0.254580 0.123990 0.418685 0.036145 -0.482195 0.540700 -0.062319 
733 -0.231866 -0.016421 0.426354 -0.281615 -0.002800 0.091342 -0.346151 -1.027861 -0.048714 0.505762 0.451685 -0.670599 0.196174 -0.060758 -0.717779 0.344358 -0.238202 0.146526 0.445279 0.077111 -0.361214 0.386837 -0.045042 0.332861 -0.109915 -0.155259 -0.025818 -0.175537 0.016208 0.143951 0.559100 0.071706 0.486902 -0.135499 0.782502 -0.387078 0.069934 0.048732 0.635150 0.231527 0.698711 0.075499 0.175758 -0.037117 0.225294 0.457650 -0.619176 -0.396114 0.093924 -0.315809 0.154333 0.149348 0.083927 -0.187498 0.167968 -0.684251 0.335486 -0.198117 -0.138384 0.317181 -0.333590 -0.327633 -0.006060 0.193621 0.041096 0.462496 -0.377469 -0.245275 0.309795 0.062052 0.403438 0.589937 -0.120479 -0.026647 -0.264244 0.054853 -0.450518 -0.051798 -0.216775 -0.280931 -0.115729 -0.062937 -0.608753 -0.293484 0.190298 -0.190392 -0.025606 0.008184 0.788840 0.298264 -0.134144 0.154831 0.110443 -0.384506 -0.047150 -0.156975 -0.412457 0.623797 0.538059 -0.486877 0.105792 0.795786 -0.166717 -0.427635 0.307290 0.304265 0.340652 0.440770 0.623142 -0.111565 0.289684 -0.168100 -0.220425 1.028714 -0.164346 0.191789 0.155252 0.213750 -0.064148 -0.066201 -0.256987 0.266988 -0.402458 0.357467 0.003616 -0.216752 0.423518 0.135408 
2396 -0.151589 -0.226600 -0.796004 -0.744751 -0.045032 -0.482252 0.421164 -0.511618 -0.656625 -0.044622 0.405313 -0.358355 0.440769 0.222669 -1.009447 0.159970 0.046589 -0.644933 0.841266 0.211660 -0.356372 0.190641 0.180370 0.159060 0.690389 -0.230673 -0.476523 -0.400358 0.111165 0.433462 -0.038125 -0.700388 0.304807 -0.069446 -0.135076 -0.236597 0.184086 0.037124 -0.087596 -0.528541 -0.485427 -0.045565 0.245571 -0.805180 -0.165999 -0.640201 0.373613 -0.865876 -0.641126 0.148909 -0.235676 -0.248706 -0.035283 -0.490334 -0.162578 -0.291933 -0.319971 -0.255747 -0.444953 0.250937 0.027944 -0.556886 -0.012305 0.407875 0.311635 -0.388815 0.100720 0.128567 0.216190 -0.205619 0.018302 -0.164070 0.009110 -0.202406 0.497237 -0.125571 -0.414450 0.111992 -0.647747 -0.018997 0.287754 -0.142700 -1.076747 0.412493 -0.223369 0.157140 0.311613 0.002625 0.042276 0.646765 0.158243 0.688380 0.096940 0.354293 0.401744 0.633037 0.166996 0.026095 0.189697 0.409551 0.080602 0.483938 -0.436917 -0.116078 -0.121236 -0.409136 -0.056557 -0.451573 -0.005280 -0.456671 0.069542 -0.055448 0.014334 0.344835 0.085063 -0.077753 -0.161414 0.143761 -0.324375 0.130721 -0.592182 -0.360403 0.489537 -0.359490 0.509677 -0.756062 -0.667787 0.770634 
2918 -0.281533 0.124861 -0.544652 -0.050390 0.281294 -0.158939 -0.165396 -0.709013 0.119663 0.597146 -0.010548 -0.181714 0.299890 -0.004783 -0.636032 0.688294 -0.392931 0.020961 0.039711 0.063623 0.592860 -0.010390 0.080816 0.444014 0.231427 0.386495 -0.118984 -0.008921 0.028199 0.660383 -0.039587 -0.485092 0.014559 -0.019395 0.137344 0.176873 -0.593905 -0.256055 -0.188373 -1.019961 -0.156290 0.320653 0.364854 0.260999 -0.013780 -0.582694 0.585567 -0.209479 0.040572 -0.191758 0.451990 0.140506 -0.045020 -0.500422 -0.318480 -0.535862 -0.254548 -0.327939 -0.410576 -0.004535 -0.075310 -0.410598 0.477862 0.404716 0.050214 -0.253501 -0.471982 0.114759 0.224170 0.551034 0.424642 -0.168870 0.213870 -0.433863 -0.220444 0.235727 -0.043655 -0.313749 -0.068104 0.133913 0.219742 -0.043959 -1.688381 -0.225707 -0.146437 -0.091335 0.117593 0.189434 0.425491 0.918408 0.164308 0.015384 0.476553 0.665730 0.062687 0.607739 -0.145885 -0.641174 -0.262524 0.392960 0.210237 0.372197 0.291404 0.499627 0.365729 -0.377876 0.157846 -0.062744 0.240860 0.236898 -0.440367 0.540843 0.423940 0.576352 -0.127494 0.154302 0.120393 -0.304692 0.161343 0.062809 0.499948 -0.052257 -0.022705 0.080488 0.155675 0.359667 -0.024538 -0.550390 
349 -0.153232 -0.093786 -0.169911 0.291424 -0.049118 0.056181 -0.342277 -0.802271 -0.067347 -0.458392 0.257120 -0.495034 0.553628 -0.466039 -0.281199 -0.106152 -0.633550 -0.053282 0.520991 -0.355388 0.262916 0.676851 -0.720437 0.046979 -0.205268 0.289781 0.188468 0.010516 0.042046 0.316378 -0.242478 0.227021 -0.031788 -0.236086 0.518775 0.407903 0.203569 0.027705 0.555501 -0.291415 0.207592 -0.185029 -0.011862 0.182505 -0.911052 0.105875 -0.080876 0.039523 -0.352966 0.438132 0.499689 -0.513963 -0.203605 -0.138313 -0.150601 -0.316250 -0.284612 0.014628 0.180665 0.454803 0.050195 -0.676204 0.369394 0.171615 -0.271944 0.752733 0.510890 0.066682 0.272842 0.622052 -0.384878 0.008568 0.070528 0.499483 -0.048142 -0.098580 -0.202947 0.073361 0.127251 -0.177913 -0.048662 0.202542 -0.745840 0.429988 0.082816 -0.353657 0.052533 0.081643 0.842852 0.679357 -0.043751 -0.146035 -0.104525 -0.138935 0.185869 0.117928 0.007824 0.237364 0.214935 -0.287833 -0.434465 0.641001 -0.027609 0.180551 0.582036 0.088954 0.156465 0.155832 0.104540 0.294483 -1.072459 0.048334 0.138882 0.395119 0.802241 -0.295344 -0.668934 -0.167683 0.030419 -0.546427 -0.627046 -0.175529 -0.084750 0.308139 0.464556 0.038140 0.213278 -0.183491 
2502 -0.470236 0.265920 -0.452325 -0.076291 -0.159630 0.444296 0.423501 -0.735463 -0.437517 0.356419 0.380760 -0.192583 0.610094 0.411772 -0.460031 -0.131292 -0.260469 0.078153 0.986925 -0.598267 0.076416 -0.154055 -0.123148 0.696465 0.675280 -0.611260 0.466483 0.152291 0.361544 0.761380 -0.567437 -0.107544 0.228477 -0.848912 -0.372702 -0.046052 0.256150 -0.647271 -0.317291 0.079275 -0.065639 -0.089126 0.204020 -0.562141 0.212383 -0.303955 0.272191 -0.094068 -0.096299 -0.047347 -0.122879 -0.332454 -0.143062 -0.905014 0.076197 -0.281463 -0.378113 0.049718 -0.336316 0.468731 -0.119186 0.374038 0.120784 -0.361827 0.191292 -0.115462 -0.551489 -0.079717 -0.752457 -0.423530 0.003770 0.426224 0.140416 -0.370816 0.261865 -0.065396 0.472754 -0.107170 0.356356 0.075963 0.347866 -0.007637 -0.804326 0.305815 0.119279 -0.292024 0.035648 0.217577 0.441446 0.049621 -0.087411 0.622052 -0.218890 -0.295288 0.860692 0.708846 0.367080 -0.365116 -0.039220 -0.236980 0.101977 0.664112 -0.492532 -0.159953 -0.072044 -0.136375 -0.157139 -0.083501 0.065421 -0.153885 -0.018361 0.318311 -0.198819 0.870745 -0.464573 0.278292 -0.536057 0.174529 -0.230997 0.180782 0.414365 0.115908 0.414834 0.270196 0.329232 -0.299062 -0.210302 0.132964 
1222 -0.174527 -0.118540 0.100154 -0.391223 -0.078946 0.285923 0.108096 -1.227594 0.112313 0.271341 -0.385241 -0.132825 0.288729 0.681804 0.022959 0.510786 -0.041301 0.220386 0.678720 0.404457 -0.405654 -0.407605 -0.717404 -0.366888 -0.012466 0.206158 -0.087136 -0.162384 -0.014620 -0.223952 0.307763 -0.392619 -0.075660 -0.274461 -0.076272 0.271277 0.031434 0.234611 0.602950 -0.608212 0.203046 -0.242811 0.162162 -0.218394 -0.382140 -0.001659 0.316738 0.464818 0.479026 0.396113 0.172369 0.255321 -0.021136 -0.071490 -0.008127 0.110765 0.167989 -0.252075 0.299064 0.191819 0.274752 0.042266 0.172165 0.288251 0.578535 -0.459502 -0.614293 0.536773 0.072880 0.561634 0.022666 -0.250070 0.518366 -0.298701 -0.012966 -0.533178 -0.091824 0.738391 0.309022 -0.267022 0.200330 -0.357711 -0.803822 -0.029467 0.307175 -0.168860 -0.174233 -0.301646 1.016962 0.548826 0.019021 -0.797549 0.017331 -0.285512 0.256399 0.708466 0.182085 0.005845 0.186708 -0.612491 0.212372 0.787625 0.246873 -0.469216 -0.080848 -0.460089 0.194605 -0.048262 0.267415 -0.386226 0.741668 -0.484649 0.212429 -0.039650 -0.419096 0.345162 0.422254 -0.002295 -0.534941 -0.463516 -0.187810 0.079047 -0.572344 -0.278991 0.164538 0.078388 -0.246833 0.130398 
648 0.240826 -0.029548 0.220655 -0.187915 -0.053438 -0.386420 -0.239269 -1.087220 0.128973 0.013857 0.320194 -1.270571 0.490923 0.134864 -1.039281 0.554115 -0.823234 0.189124 0.254752 -0.139628 -0.361313 0.497562 -0.475351 -0.047458 -0.110898 -0.067466 0.399537 -0.531997 0.043896 0.256116 0.422124 0.493046 0.345178 -0.168565 0.601690 -0.057246 0.095659 0.028876 0.298668 0.049499 0.429499 0.504716 0.387285 0.066697 0.389865 -0.000657 -0.389252 0.055758 0.316487 -0.119732 -0.135258 -0.143111 -0.476097 -0.231749 0.032996 -0.322113 0.477625 -0.051960 -0.330441 0.640400 -0.047602 -0.022110 0.127574 0.121412 0.007247 -0.276529 -0.462735 -0.317229 0.273921 0.289815 -0.365872 -0.438451 -0.053354 -0.092801 -0.736457 -0.237224 -0.306876 -0.002599 -0.014166 -0.088641 0.288686 0.135209 -0.815750 0.317089 -0.073287 -0.331689 -0.315050 0.365542 0.634100 0.149588 0.230440 0.135620 -0.478682 -0.525506 -0.434331 -0.262686 -0.970817 -0.178512 0.547727 -0.566850 -0.069303 0.699298 0.121023 -0.417285 0.544541 0.128960 -0.192128 0.221452 0.253006 0.121200 0.399111 -0.130308 0.066227 0.315450 0.226338 0.072105 0.028930 0.239177 0.053558 0.004110 -0.625209 0.237497 -0.351683 0.171313 0.335648 -0.300307 0.160421 -0.118361 
1258 -0.988041 0.097294 0.056240 -0.885684 -0.210809 0.192008 -0.108130 -1.093162 0.299415 0.227807 0.292886 -0.156232 0.102092 0.364937 0.266564 0.062628 -0.064272 0.108169 0.955802 0.131487 -0.164675 -0.171785 0.031939 -0.209177 -0.093875 -0.076653 -0.369507 0.402709 -0.134934 -0.480474 0.328330 -0.061333 0.250978 -0.714003 -0.090177 0.082069 -0.444927 0.431484 0.141149 -0.166986 -0.049834 0.125449 -0.118592 -0.548172 -0.224539 -0.197605 0.532193 -0.585036 0.076412 -0.083015 0.147196 0.257587 -0.068571 0.049245 0.144841 0.394504 -0.042153 0.572882 -0.167798 0.301478 -0.155708 -0.296680 0.092370 -0.095297 0.553817 -0.309433 -0.277763 0.721396 0.112894 0.171322 -0.014853 0.224654 -0.156599 -0.391667 0.096495 -0.137893 0.031818 0.791214 0.101256 -0.320769 -0.081578 0.034671 -1.026364 -0.160857 0.259573 -0.117720 -0.054314 0.019214 0.833249 0.339418 -0.130035 -0.637105 -0.250029 0.340227 0.041952 0.356032 0.596433 0.697902 0.000711 -0.269332 -0.111175 0.110171 0.141637 -0.217012 -0.014191 0.516604 0.093807 -0.118936 -0.045874 0.044128 -0.354703 -0.467162 0.236072 -0.018145 0.149708 0.804492 0.526739 -0.805899 0.052512 0.261528 -0.270326 0.256990 -0.259034 0.201306 0.687639 -0.105233 0.282364 0.436682 
4886 0.259243 0.052305 0.612760 0.023738 0.628190 0.069280 -0.628170 -1.139218 -0.048642 -0.205362 0.041912 -0.188114 0.275692 0.724865 -0.323389 0.092694 0.007412 0.333847 0.195209 0.633046 -0.384593 0.433221 0.098685 0.024966 -0.393211 -0.619497 0.138047 -0.185672 -0.233122 -0.654559 0.347412 -0.204205 0.437975 -0.190031 -0.188896 -0.020767 0.429894 -0.021982 -0.097797 0.067412 0.088739 -0.009067 0.864017 0.274096 0.320534 -0.707878 0.222689 0.139115 0.337218 0.513043 0.607857 -0.357861 0.116637 0.837870 -0.626116 0.266245 -0.415920 -0.114414 -0.378866 -0.300397 -0.028327 0.143110 -0.109164 -0.350018 0.284368 -0.335149 0.060922 0.079159 -0.347363 0.048146 -0.711223 0.576191 0.022145 -0.702062 -0.303140 0.446143 0.706950 0.138753 -0.005844 -0.169858 0.208093 0.208039 -1.125737 0.415037 0.628712 0.339383 -0.185234 -0.231700 1.108290 -0.046522 0.361493 -0.023799 0.348019 0.907021 -0.143298 0.033845 -0.192559 -0.346101 0.074744 0.418050 0.789318 0.522696 0.242018 -0.230278 -0.458182 0.749746 0.328453 0.415538 -0.355163 -0.240916 -0.556655 0.604499 0.261787 -0.070016 0.032077 -0.036441 -0.895253 0.087713 0.101551 0.827951 -0.285719 0.015364 0.641656 -0.546195 0.306197 0.068840 0.022571 -0.835915 
3114 0.070965 0.301415 -0.231534 -0.335112 -0.089340 -0.485064 -0.337610 -1.110058 -0.172532 0.396392 -0.287221 -0.006075 0.543218 0.361194 -0.228618 0.508379 0.054122 0.461386 0.262225 -0.131520 -0.179341 -0.207634 0.400104 -0.212938 0.751113 -0.072131 0.265998 0.355972 0.328188 1.224937 -0.577928 0.089180 -0.147721 -0.102004 0.056343 -0.167006 -0.392100 -0.029960 -0.275657 -0.596545 -0.550272 0.291385 0.136733 0.691405 0.410527 -0.186849 0.410710 -0.000883 -0.264881 -0.227599 -0.385030 -0.255524 -0.011064 0.166844 -0.048527 0.530208 -0.052018 0.160445 -0.420017 0.213810 0.382989 -0.137636 0.447452 0.043546 -0.352856 -0.502008 -0.069716 0.169423 -0.063928 -0.048939 0.002768 -0.273912 0.117807 -0.743244 -0.279368 0.703332 -0.455373 -0.364267 -0.132887 0.455780 0.001301 0.172395 -1.233122 0.126866 0.348119 -0.420094 0.056454 -0.847803 0.556808 0.146404 0.430848 -0.132795 0.353457 -0.253831 0.314426 0.083608 0.113895 -0.631660 0.242597 0.480356 -0.555579 0.721999 -0.004718 0.108541 -0.291094 -0.385698 -0.102534 -0.158463 -0.420376 0.701713 -0.362029 0.373833 -0.673435 0.150209 -0.077239 -0.206897 0.434999 0.171476 0.119252 -0.305326 0.132323 -0.081248 0.324618 -0.216365 -0.046326 0.211817 -0.120963 -0.292799 
